{"learner":{"attributes":{"scikit_learn":"{\"_estimator_type\": \"regressor\"}"},"feature_names":["medicineId","userId","price_per_unit","date","region","AvgPriceByDayGlobal","AvgPriceByDayRegion","AvgPriceByDayStore","RealSoldByDayGlobal"],"feature_types":["int","int","int","int","int","float","float","float","float"],"gradient_booster":{"model":{"gbtree_model_param":{"num_parallel_tree":"1","num_trees":"100"},"iteration_indptr":[0,1,2,3,4,5,6,7,8,9,10,11,12,13,14,15,16,17,18,19,20,21,22,23,24,25,26,27,28,29,30,31,32,33,34,35,36,37,38,39,40,41,42,43,44,45,46,47,48,49,50,51,52,53,54,55,56,57,58,59,60,61,62,63,64,65,66,67,68,69,70,71,72,73,74,75,76,77,78,79,80,81,82,83,84,85,86,87,88,89,90,91,92,93,94,95,96,97,98,99,100],"tree_info":[0,0,0,0,0,0,0,0,0,0,0,0,0,0,0,0,0,0,0,0,0,0,0,0,0,0,0,0,0,0,0,0,0,0,0,0,0,0,0,0,0,0,0,0,0,0,0,0,0,0,0,0,0,0,0,0,0,0,0,0,0,0,0,0,0,0,0,0,0,0,0,0,0,0,0,0,0,0,0,0,0,0,0,0,0,0,0,0,0,0,0,0,0,0,0,0,0,0,0,0],"trees":[{"base_weights":[-1.2968488E-6,-6.139605E-1,5.2302027E-1,-1.2819644E0,-4.280559E-1,2.6854837E-1,1.0314707E0,-1.6155903E0,-7.783487E-1,-2.9910484E-1,-9.425687E-1,1.9634879E-1,6.948236E-1,1.8149586E0,5.07779E-1,-2.15152E0,-8.053089E-1,-4.0246558E-1,-1.3353201E0,-1.2596177E-1,-8.581224E-1,-7.826189E-1,-3.5644454E-1,2.641636E-1,-7.761374E-1,1.3951763E0,3.8012564E-1,1.484939E0,2.4648323E0,-1.891956E-1,7.069011E-1,-2.487774E0,-1.461887E0,-1.2964627E-1,-2.1357753E0,-1.7588891E-1,-1.22728564E-1,-6.477785E-2,-1.5562277E-1,-2.2142364E-1,2.3712666E0,-2.6991572E0,-6.079863E-1,-1.2086024E0,3.777635E-4,9.435981E-2,4.7614488E-1,-3.425557E-1,-9.418542E-2,6.022204E-2,1.65132E0,4.780413E-2,1.5261957E-1,2.0396729E0,7.01135E-1,2.5761347E0,1.8522194E-1,-1.4315508E-1,4.3772933E-1,7.9117006E-1,-9.352214E-2,-2.8699997E-1,-2.3954563E-1,-9.255552E-2,-1.71324E-1,-1.6200007E-1,3.7773494E-2,-1.6200007E-1,-2.592223E-1,7.5154886E-2,-7.071716E-2,-1.771786E-2,-2.4533346E-1,3.2411104E-1,1.4355543E-1,-2.3144463E-1,-3.008892E-1,-7.667632E-2,1.5744427E-1,-2.0056894E-2,-1.7814648E-1,-4.4563536E-2,2.2496326E-2,3.0219302E-2,-7.350899E-2,3.333602E-2,1.2409072E-1,1.0188892E-1,-4.713222E-2,1.3853511E-1,2.1299998E-1,7.411088E-2,-7.0711384E-3,8.923934E-2,2.490907E-1,1.8905513E-2,1.4557734E-1,2.3008426E-1,2.7362254E-1,8.022629E-2,-6.477785E-2,7.1353294E-2,2.1299998E-1,-3.700018E-2,1.8555535E-2],"categories":[],"categories_nodes":[],"categories_segments":[],"categories_sizes":[],"default_left":[0,0,0,0,0,0,0,0,0,0,0,0,0,0,0,0,0,0,0,0,0,0,0,0,0,0,0,0,0,0,0,0,0,0,0,0,0,0,0,0,0,0,0,0,0,0,0,0,0,0,0,0,0,0,0,0,0,0,0,0,0,0,0,0,0,0,0,0,0,0,0,0,0,0,0,0,0,0,0,0,0,0,0,0,0,0,0,0,0,0,0,0,0,0,0,0,0,0,0,0,0,0,0,0,0],"id":0,"left_children":[1,3,5,7,9,11,13,15,17,19,21,23,25,27,29,31,33,35,37,39,41,43,-1,45,47,49,51,53,55,57,59,61,63,65,67,-1,69,-1,-1,71,73,75,77,79,81,83,85,-1,87,-1,89,91,-1,93,95,97,-1,-1,99,101,103,-1,-1,-1,-1,-1,-1,-1,-1,-1,-1,-1,-1,-1,-1,-1,-1,-1,-1,-1,-1,-1,-1,-1,-1,-1,-1,-1,-1,-1,-1,-1,-1,-1,-1,-1,-1,-1,-1,-1,-1,-1,-1,-1,-1],"loss_changes":[2.8103887E3,4.9942004E2,6.112029E2,1.4592737E2,2.0877747E2,9.684155E1,6.4572107E2,2.2668494E2,7.2946625E1,2.4389955E2,2.618321E2,1.7800352E2,9.997188E1,1.3167114E2,1.3142247E2,6.964099E1,1.8940082E2,7.984636E1,2.0407394E1,4.596644E2,2.7282248E2,1.9879248E2,0E0,9.0699036E1,3.176701E2,2.7644135E1,1.2027998E2,1.8162177E2,9.6154785E0,1.6496684E2,4.9717834E1,5.703125E-1,1.2703995E1,1.07233E2,1.2515717E1,0E0,9.046138E1,0E0,0E0,1.8284717E2,5.3135803E1,1.4963379E0,1.8347641E2,2.2254395E2,2.1235714E1,2.417366E2,1.2199542E2,0E0,5.96694E1,0E0,1.0544495E1,2.0265574E1,0E0,1.2512933E2,6.773735E1,1.4609375E0,0E0,0E0,5.631395E1,6.770618E1,5.5469627E0,0E0,0E0,0E0,0E0,0E0,0E0,0E0,0E0,0E0,0E0,0E0,0E0,0E0,0E0,0E0,0E0,0E0,0E0,0E0,0E0,0E0,0E0,0E0,0E0,0E0,0E0,0E0,0E0,0E0,0E0,0E0,0E0,0E0,0E0,0E0,0E0,0E0,0E0,0E0,0E0,0E0,0E0,0E0,0E0],"parents":[2147483647,0,0,1,1,2,2,3,3,4,4,5,5,6,6,7,7,8,8,9,9,10,10,11,11,12,12,13,13,14,14,15,15,16,16,17,17,18,18,19,19,20,20,21,21,23,23,24,24,25,25,26,26,27,27,28,28,29,29,30,30,31,31,32,32,33,33,34,34,36,36,39,39,40,40,41,41,42,42,43,43,44,44,45,45,46,46,48,48,50,50,51,51,53,53,54,54,55,55,58,58,59,59,60,60],"right_children":[2,4,6,8,10,12,14,16,18,20,22,24,26,28,30,32,34,36,38,40,42,44,-1,46,48,50,52,54,56,58,60,62,64,66,68,-1,70,-1,-1,72,74,76,78,80,82,84,86,-1,88,-1,90,92,-1,94,96,98,-1,-1,100,102,104,-1,-1,-1,-1,-1,-1,-1,-1,-1,-1,-1,-1,-1,-1,-1,-1,-1,-1,-1,-1,-1,-1,-1,-1,-1,-1,-1,-1,-1,-1,-1,-1,-1,-1,-1,-1,-1,-1,-1,-1,-1,-1,-1,-1],"split_conditions":[1.8771428E2,1.8357143E2,1.9157143E2,4E0,5E0,6.78423E3,2E0,1.8242857E2,1.8242857E2,6.06756E3,6.616346E3,6.7035083E3,6.842004E3,5.247411E3,1.9185715E2,3E0,3E0,3.8086216E3,3.18029E3,5.828653E3,6.2711123E3,5.3617197E3,-3.5644454E-1,1.89E2,2E0,6.533979E3,5E0,4.9617993E3,6.3868755E3,3E0,5.766996E3,3.696107E3,7E0,3.3104885E3,1.2E1,-1.7588891E-1,4.80361E3,-6.477785E-2,-1.5562277E-1,5.8100156E3,1.7E1,1.6E1,7.0260073E3,3.659749E3,5.8216816E3,4E0,4E0,-3.425557E-1,1.8E1,6.022204E-2,1.8E1,6.8611743E3,1.5261957E-1,3.4999285E3,2E0,5.3694946E3,1.8522194E-1,-1.4315508E-1,6.467537E3,5.6082363E3,2E0,-2.8699997E-1,-2.3954563E-1,-9.255552E-2,-1.71324E-1,-1.6200007E-1,3.7773494E-2,-1.6200007E-1,-2.592223E-1,7.5154886E-2,-7.071716E-2,-1.771786E-2,-2.4533346E-1,3.2411104E-1,1.4355543E-1,-2.3144463E-1,-3.008892E-1,-7.667632E-2,1.5744427E-1,-2.0056894E-2,-1.7814648E-1,-4.4563536E-2,2.2496326E-2,3.0219302E-2,-7.350899E-2,3.333602E-2,1.2409072E-1,1.0188892E-1,-4.713222E-2,1.3853511E-1,2.1299998E-1,7.411088E-2,-7.0711384E-3,8.923934E-2,2.490907E-1,1.8905513E-2,1.4557734E-1,2.3008426E-1,2.7362254E-1,8.022629E-2,-6.477785E-2,7.1353294E-2,2.1299998E-1,-3.700018E-2,1.8555535E-2],"split_indices":[8,8,8,1,1,6,4,8,8,6,5,6,6,6,8,1,1,6,6,6,5,5,0,8,1,5,1,6,6,1,6,6,0,6,0,0,6,0,0,6,0,0,6,5,6,4,4,0,0,0,0,6,0,6,1,5,0,0,6,6,0,0,0,0,0,0,0,0,0,0,0,0,0,0,0,0,0,0,0,0,0,0,0,0,0,0,0,0,0,0,0,0,0,0,0,0,0,0,0,0,0,0,0,0,0],"split_type":[0,0,0,0,0,0,0,0,0,0,0,0,0,0,0,0,0,0,0,0,0,0,0,0,0,0,0,0,0,0,0,0,0,0,0,0,0,0,0,0,0,0,0,0,0,0,0,0,0,0,0,0,0,0,0,0,0,0,0,0,0,0,0,0,0,0,0,0,0,0,0,0,0,0,0,0,0,0,0,0,0,0,0,0,0,0,0,0,0,0,0,0,0,0,0,0,0,0,0,0,0,0,0,0,0],"sum_hessian":[8.75E3,4.025E3,4.725E3,8.75E2,3.15E3,3.15E3,1.575E3,5.25E2,3.5E2,2.52E3,6.3E2,2.695E3,4.55E2,6.3E2,9.45E2,3.15E2,2.1E2,2.1E2,1.4E2,1.925E3,5.95E2,5.95E2,3.5E1,2.52E3,1.75E2,1.4E2,3.15E2,4.2E2,2.1E2,2.1E2,7.35E2,2.1E2,1.05E2,1.4E2,7E1,3.5E1,1.75E2,3.5E1,1.05E2,1.855E3,7E1,7E1,5.25E2,3.85E2,2.1E2,1.4E3,1.12E3,3.5E1,1.4E2,3.5E1,1.05E2,2.45E2,7E1,2.45E2,1.75E2,1.75E2,3.5E1,7E1,1.4E2,6.65E2,7E1,3.5E1,1.75E2,3.5E1,7E1,3.5E1,1.05E2,3.5E1,3.5E1,7E1,1.05E2,1.82E3,3.5E1,3.5E1,3.5E1,3.5E1,3.5E1,4.9E2,3.5E1,1.4E2,2.45E2,7E1,1.4E2,1.12E3,2.8E2,9.45E2,1.75E2,3.5E1,1.05E2,7E1,3.5E1,3.5E1,2.1E2,7E1,1.75E2,1.05E2,7E1,7E1,1.05E2,1.05E2,3.5E1,6.3E2,3.5E1,3.5E1,3.5E1],"tree_param":{"num_deleted":"0","num_feature":"9","num_nodes":"105","size_leaf_vector":"1"}},{"base_weights":[-8.846035E-5,-5.531976E-1,4.7109595E-1,-1.0897365E0,-3.635284E-1,2.4183832E-1,9.291668E-1,-1.1423926E0,4.266082E-2,-2.2666003E-1,-7.797764E-1,1.617103E-1,5.6158614E-1,1.6353507E0,4.5714656E-1,-1.3835807E0,-7.9823476E-1,-3.0397823E-1,2.1407268E0,-2.4367394E0,-6.019623E-1,4.8820844E-1,5.2676976E-2,6.631862E-2,1.1782314E0,1.3376386E0,2.2216132E0,-1.7088199E-1,6.3657165E-1,-1.93887E0,-7.542034E-1,-3.6303136E-1,-1.229655E0,-2.2972193E-1,-2.7024198E-1,2.9260015E-1,1.2959872E-1,-2.08943E-1,-2.716362E-1,-7.164442E-1,1.4213721E-1,1.0422237E0,-2.0555517E-1,-2.0440135E0,1.3439709E-1,-1.7956689E-1,1.0385372E-1,1.5637321E0,1.5993521E-3,1.8370795E0,6.319563E-1,2.3213823E0,1.6721418E-1,-7.3617095E-1,9.5414096E-1,7.3846096E-1,2.4036372E-2,-2.2414938E-1,-1.3181864E-1,-5.1904052E-2,-2.3401998E-1,-6.292876E-2,9.487497E-2,-7.7005565E-2,-1.6776538E-1,-1.3481683E-2,-7.688811E-2,-5.8038402E-2,-1.7814206E-1,-2.4155201E-2,1.3628851E-1,1.2138956E-3,-1.6874218E-1,-2.6596442E-1,-1.3716047E-1,3.0138234E-2,-1.121795E-2,-4.8097014E-2,7.1868174E-2,1.9505447E-1,1.16216734E-1,8.044093E-2,2.2432302E-1,-5.2727062E-2,9.234472E-2,2.0739996E-1,2.4651824E-1,-1.290413E-1,-1.7156037E-2,3.853337E-2,1.4964442E-1,8.412895E-2,-8.443E-3,-4.4556014E-2,9.495174E-2],"categories":[],"categories_nodes":[],"categories_segments":[],"categories_sizes":[],"default_left":[0,0,0,0,0,0,0,0,0,0,0,0,0,0,0,0,0,0,0,0,0,0,0,0,0,0,0,0,0,0,0,0,0,0,0,0,0,0,0,0,0,0,0,0,0,0,0,0,0,0,0,0,0,0,0,0,0,0,0,0,0,0,0,0,0,0,0,0,0,0,0,0,0,0,0,0,0,0,0,0,0,0,0,0,0,0,0,0,0,0,0,0,0,0,0],"id":1,"left_children":[1,3,5,7,9,11,13,15,-1,17,19,21,23,25,27,29,31,33,35,37,39,41,43,45,47,49,51,53,55,57,59,61,63,-1,65,-1,-1,-1,-1,67,-1,69,71,73,75,77,-1,79,-1,81,83,85,-1,87,89,91,93,-1,-1,-1,-1,-1,-1,-1,-1,-1,-1,-1,-1,-1,-1,-1,-1,-1,-1,-1,-1,-1,-1,-1,-1,-1,-1,-1,-1,-1,-1,-1,-1,-1,-1,-1,-1,-1,-1],"loss_changes":[2.2809148E3,4.0930945E2,4.9608215E2,8.4404175E1,1.693695E2,8.064017E1,5.245852E2,8.323047E1,0E0,4.1084802E2,2.1538177E2,8.971982E1,1.92632E2,1.0716138E2,1.067079E2,2.0683167E2,7.8598694E1,1.4536699E2,4.3306E1,1.2195435E0,1.5528735E2,2.4274263E2,3.2428207E2,8.40946E1,1.25875275E2,1.47219E2,7.685425E0,1.3489062E2,4.5916656E1,5.6400757E1,1.0358922E2,7.429295E1,4.2152985E1,0E0,1.4413672E2,0E0,0E0,0E0,0E0,9.039856E1,0E0,1.4482089E2,9.0669304E1,2.5742828E1,7.501285E1,7.642221E1,0E0,3.0507812E1,0E0,1.0137274E2,5.9958015E1,1.1481934E0,0E0,4.3901863E1,2.1324455E1,5.346411E1,4.6490944E1,0E0,0E0,0E0,0E0,0E0,0E0,0E0,0E0,0E0,0E0,0E0,0E0,0E0,0E0,0E0,0E0,0E0,0E0,0E0,0E0,0E0,0E0,0E0,0E0,0E0,0E0,0E0,0E0,0E0,0E0,0E0,0E0,0E0,0E0,0E0,0E0,0E0,0E0],"parents":[2147483647,0,0,1,1,2,2,3,3,4,4,5,5,6,6,7,7,9,9,10,10,11,11,12,12,13,13,14,14,15,15,16,16,17,17,18,18,19,19,20,20,21,21,22,22,23,23,24,24,25,25,26,26,27,27,28,28,29,29,30,30,31,31,32,32,34,34,39,39,41,41,42,42,43,43,44,44,45,45,47,47,49,49,50,50,51,51,53,53,54,54,55,55,56,56],"right_children":[2,4,6,8,10,12,14,16,-1,18,20,22,24,26,28,30,32,34,36,38,40,42,44,46,48,50,52,54,56,58,60,62,64,-1,66,-1,-1,-1,-1,68,-1,70,72,74,76,78,-1,80,-1,82,84,86,-1,88,90,92,94,-1,-1,-1,-1,-1,-1,-1,-1,-1,-1,-1,-1,-1,-1,-1,-1,-1,-1,-1,-1,-1,-1,-1,-1,-1,-1,-1,-1,-1,-1,-1,-1,-1,-1,-1,-1,-1,-1],"split_conditions":[1.8771428E2,1.8385715E2,1.9157143E2,6.956586E3,6.06756E3,5E0,2E0,4E0,4.266082E-2,5.904553E3,6.2711123E3,3.687568E3,3.5E1,5.247411E3,1.9185715E2,1.8242857E2,1.8242857E2,2.988786E3,1.7E1,1.6E1,7.0260073E3,2.3E1,6E0,6.533979E3,4.4E1,4.9617993E3,6.3868755E3,4E0,3E1,3E0,6.8310376E3,5.4985E3,4.826251E3,-2.2972193E-1,5E0,2.9260015E-1,1.2959872E-1,-2.08943E-1,-2.716362E-1,6.9444473E3,1.4213721E-1,2.9317886E3,3.378996E3,4E0,6.5244287E3,1.9028572E2,1.0385372E-1,6.737435E3,1.5993521E-3,3.4999285E3,5.001784E3,5.3694946E3,1.6721418E-1,3E0,8E0,5.766996E3,4E0,-2.2414938E-1,-1.3181864E-1,-5.1904052E-2,-2.3401998E-1,-6.292876E-2,9.487497E-2,-7.7005565E-2,-1.6776538E-1,-1.3481683E-2,-7.688811E-2,-5.8038402E-2,-1.7814206E-1,-2.4155201E-2,1.3628851E-1,1.2138956E-3,-1.6874218E-1,-2.6596442E-1,-1.3716047E-1,3.0138234E-2,-1.121795E-2,-4.8097014E-2,7.1868174E-2,1.9505447E-1,1.16216734E-1,8.044093E-2,2.2432302E-1,-5.2727062E-2,9.234472E-2,2.0739996E-1,2.4651824E-1,-1.290413E-1,-1.7156037E-2,3.853337E-2,1.4964442E-1,8.412895E-2,-8.443E-3,-4.4556014E-2,9.495174E-2],"split_indices":[8,8,8,6,6,1,4,1,0,6,5,6,0,6,8,8,8,6,0,0,6,0,0,5,0,6,6,1,0,1,6,6,6,0,1,0,0,0,0,6,0,6,6,1,6,8,0,5,0,6,6,5,0,1,0,6,1,0,0,0,0,0,0,0,0,0,0,0,0,0,0,0,0,0,0,0,0,0,0,0,0,0,0,0,0,0,0,0,0,0,0,0,0,0,0],"split_type":[0,0,0,0,0,0,0,0,0,0,0,0,0,0,0,0,0,0,0,0,0,0,0,0,0,0,0,0,0,0,0,0,0,0,0,0,0,0,0,0,0,0,0,0,0,0,0,0,0,0,0,0,0,0,0,0,0,0,0,0,0,0,0,0,0,0,0,0,0,0,0,0,0,0,0,0,0,0,0,0,0,0,0,0,0,0,0,0,0,0,0,0,0,0,0],"sum_hessian":[8.75E3,4.025E3,4.725E3,1.05E3,2.975E3,3.15E3,1.575E3,1.015E3,3.5E1,2.24E3,7.35E2,2.52E3,6.3E2,6.3E2,9.45E2,5.95E2,4.2E2,2.17E3,7E1,7E1,6.65E2,6.3E2,1.89E3,3.5E2,2.8E2,4.2E2,2.1E2,2.1E2,7.35E2,3.15E2,2.8E2,2.1E2,2.1E2,3.5E1,2.135E3,3.5E1,3.5E1,3.5E1,3.5E1,6.3E2,3.5E1,3.5E2,2.8E2,7E1,1.82E3,2.8E2,7E1,2.1E2,7E1,2.45E2,1.75E2,1.75E2,3.5E1,1.4E2,7E1,6.3E2,1.05E2,2.1E2,1.05E2,2.45E2,3.5E1,1.75E2,3.5E1,1.05E2,1.05E2,1.68E3,4.55E2,5.6E2,7E1,7E1,2.8E2,2.45E2,3.5E1,3.5E1,3.5E1,1.085E3,7.35E2,2.1E2,7E1,1.05E2,1.05E2,7E1,1.75E2,3.5E1,1.4E2,7E1,1.05E2,7E1,7E1,3.5E1,3.5E1,5.6E2,7E1,7E1,3.5E1],"tree_param":{"num_deleted":"0","num_feature":"9","num_nodes":"95","size_leaf_vector":"1"}},{"base_weights":[-9.718738E-5,-4.9819744E-1,4.2422605E-1,-9.8153615E-1,-3.273348E-1,2.1765445E-1,8.36969E-1,-1.0289954E0,3.8513344E-2,-2.039487E-1,-7.025806E-1,1.497989E-1,6.183582E-1,1.4733454E0,4.116091E-1,-1.2463009E0,-7.189167E-1,-2.9159522E-1,1.5641351E0,-2.199834E0,-5.419085E-1,2.0989698E-1,-7.1188897E-1,1.2697182E0,3.257629E-1,1.2046922E0,2.0023959E0,-1.5359534E-1,5.7308537E-1,-1.7461112E0,-6.7980164E-1,-3.2657814E-1,-1.1078482E0,-1.623767E-1,-8.1759846E-1,9.9582E-1,2.6415306E-1,-1.8862915E-1,-2.4522702E-1,-6.4517546E-1,1.2831847E-1,7.262374E-2,3.8127068E-1,-3.0816087E-1,-1.0180521E-1,5.5457808E-2,1.5006175E0,5.447062E-2,1.2611452E-1,1.6546104E0,5.689845E-1,2.0918233E0,1.5095733E-1,-6.6359216E-1,8.6137855E-1,6.6473436E-1,2.210797E-2,-2.018408E-1,-1.18761316E-1,-4.6734873E-2,-2.11268E-1,-1.5267076E-1,-7.924156E-3,-6.937749E-2,-1.51147E-1,-1.1860615E-2,-2.2017081E-1,-1.0430979E-2,-1.1726024E-1,7.939916E-2,1.1699867E-1,-5.224507E-2,-1.6057871E-1,2.4525477E-2,-6.163158E-2,2.553123E-2,1.05613075E-1,4.67622E-2,-6.697985E-2,1.2598288E-1,1.9338226E-1,2.2022443E-2,-3.5717923E-2,9.5842056E-2,2.1662524E-1,1.267543E-2,1.2212018E-1,1.8695195E-1,2.2209907E-1,-1.1631906E-1,-1.546473E-2,3.4787178E-2,1.3509582E-1,7.573102E-2,-7.6106973E-3,-4.01632E-2,8.572032E-2],"categories":[],"categories_nodes":[],"categories_segments":[],"categories_sizes":[],"default_left":[0,0,0,0,0,0,0,0,0,0,0,0,0,0,0,0,0,0,0,0,0,0,0,0,0,0,0,0,0,0,0,0,0,0,0,0,0,0,0,0,0,0,0,0,0,0,0,0,0,0,0,0,0,0,0,0,0,0,0,0,0,0,0,0,0,0,0,0,0,0,0,0,0,0,0,0,0,0,0,0,0,0,0,0,0,0,0,0,0,0,0,0,0,0,0,0,0],"id":2,"left_children":[1,3,5,7,9,11,13,15,-1,17,19,21,23,25,27,29,31,33,35,37,39,41,43,45,47,49,51,53,55,57,59,61,63,65,67,69,-1,-1,-1,71,-1,73,75,-1,77,-1,79,81,-1,83,85,87,-1,89,91,93,95,-1,-1,-1,-1,-1,-1,-1,-1,-1,-1,-1,-1,-1,-1,-1,-1,-1,-1,-1,-1,-1,-1,-1,-1,-1,-1,-1,-1,-1,-1,-1,-1,-1,-1,-1,-1,-1,-1,-1,-1],"loss_changes":[1.8497833E3,3.3216412E2,4.0276123E2,6.8565186E1,1.3764581E2,8.558298E1,4.259994E2,6.7563965E1,0E0,3.4773575E2,1.7586505E2,1.3976389E2,8.649307E1,8.727246E1,8.642671E1,1.6756573E2,6.3879776E1,1.4504976E2,6.2273285E1,9.93927E-1,1.263501E2,5.92789E1,2.5413434E2,2.2450485E1,8.012009E1,1.19471436E2,6.1414795E0,1.0979225E2,3.7150772E1,4.5659424E1,8.455444E1,6.2511395E1,3.4215607E1,1.5291362E2,1.0648343E2,1.5668259E0,0E0,0E0,0E0,7.355023E1,0E0,1.6677536E2,9.502017E1,0E0,4.591696E1,0E0,8.6206665E0,1.6863863E1,0E0,8.554901E1,5.0608917E1,9.0148926E-1,0E0,3.567192E1,1.7379604E1,4.3334106E1,3.7853786E1,0E0,0E0,0E0,0E0,0E0,0E0,0E0,0E0,0E0,0E0,0E0,0E0,0E0,0E0,0E0,0E0,0E0,0E0,0E0,0E0,0E0,0E0,0E0,0E0,0E0,0E0,0E0,0E0,0E0,0E0,0E0,0E0,0E0,0E0,0E0,0E0,0E0,0E0,0E0,0E0],"parents":[2147483647,0,0,1,1,2,2,3,3,4,4,5,5,6,6,7,7,9,9,10,10,11,11,12,12,13,13,14,14,15,15,16,16,17,17,18,18,19,19,20,20,21,21,22,22,23,23,24,24,25,25,26,26,27,27,28,28,29,29,30,30,31,31,32,32,33,33,34,34,35,35,39,39,41,41,42,42,44,44,46,46,47,47,49,49,50,50,51,51,53,53,54,54,55,55,56,56],"right_children":[2,4,6,8,10,12,14,16,-1,18,20,22,24,26,28,30,32,34,36,38,40,42,44,46,48,50,52,54,56,58,60,62,64,66,68,70,-1,-1,-1,72,-1,74,76,-1,78,-1,80,82,-1,84,86,88,-1,90,92,94,96,-1,-1,-1,-1,-1,-1,-1,-1,-1,-1,-1,-1,-1,-1,-1,-1,-1,-1,-1,-1,-1,-1,-1,-1,-1,-1,-1,-1,-1,-1,-1,-1,-1,-1,-1,-1,-1,-1,-1,-1],"split_conditions":[1.8771428E2,1.8385715E2,1.9157143E2,6.956586E3,6.06756E3,6.78423E3,2E0,4E0,3.8513344E-2,5.828653E3,6.2711123E3,6.7035083E3,6.842004E3,5.247411E3,1.9185715E2,1.8242857E2,1.8242857E2,5E0,5.949049E3,1.6E1,7.0260073E3,1.89E2,2E0,6.533979E3,5E0,4.9617993E3,6.3868755E3,4E0,3E1,3E0,6.8310376E3,3.8086216E3,4.826251E3,5.8100156E3,3.659749E3,1.6E1,2.6415306E-1,-1.8862915E-1,-2.4522702E-1,6.9444473E3,1.2831847E-1,4E0,4E0,-3.0816087E-1,6.8465933E3,5.5457808E-2,1.8E1,4E1,1.2611452E-1,3.5696416E3,2E0,5.3694946E3,1.5095733E-1,3E0,8E0,5.766996E3,4E0,-2.018408E-1,-1.18761316E-1,-4.6734873E-2,-2.11268E-1,-1.5267076E-1,-7.924156E-3,-6.937749E-2,-1.51147E-1,-1.1860615E-2,-2.2017081E-1,-1.0430979E-2,-1.1726024E-1,7.939916E-2,1.1699867E-1,-5.224507E-2,-1.6057871E-1,2.4525477E-2,-6.163158E-2,2.553123E-2,1.05613075E-1,4.67622E-2,-6.697985E-2,1.2598288E-1,1.9338226E-1,2.2022443E-2,-3.5717923E-2,9.5842056E-2,2.1662524E-1,1.267543E-2,1.2212018E-1,1.8695195E-1,2.2209907E-1,-1.1631906E-1,-1.546473E-2,3.4787178E-2,1.3509582E-1,7.573102E-2,-7.6106973E-3,-4.01632E-2,8.572032E-2],"split_indices":[8,8,8,6,6,6,4,1,0,6,5,6,6,6,8,8,8,1,6,0,6,8,1,5,1,6,6,1,0,1,6,6,6,6,5,0,0,0,0,6,0,4,4,0,5,0,0,0,0,6,1,5,0,1,0,6,1,0,0,0,0,0,0,0,0,0,0,0,0,0,0,0,0,0,0,0,0,0,0,0,0,0,0,0,0,0,0,0,0,0,0,0,0,0,0,0,0],"split_type":[0,0,0,0,0,0,0,0,0,0,0,0,0,0,0,0,0,0,0,0,0,0,0,0,0,0,0,0,0,0,0,0,0,0,0,0,0,0,0,0,0,0,0,0,0,0,0,0,0,0,0,0,0,0,0,0,0,0,0,0,0,0,0,0,0,0,0,0,0,0,0,0,0,0,0,0,0,0,0,0,0,0,0,0,0,0,0,0,0,0,0,0,0,0,0,0,0],"sum_hessian":[8.75E3,4.025E3,4.725E3,1.05E3,2.975E3,3.15E3,1.575E3,1.015E3,3.5E1,2.24E3,7.35E2,2.695E3,4.55E2,6.3E2,9.45E2,5.95E2,4.2E2,2.135E3,1.05E2,7E1,6.65E2,2.52E3,1.75E2,1.4E2,3.15E2,4.2E2,2.1E2,2.1E2,7.35E2,3.15E2,2.8E2,2.1E2,2.1E2,1.715E3,4.2E2,7E1,3.5E1,3.5E1,3.5E1,6.3E2,3.5E1,1.4E3,1.12E3,3.5E1,1.4E2,3.5E1,1.05E2,2.45E2,7E1,2.45E2,1.75E2,1.75E2,3.5E1,1.4E2,7E1,6.3E2,1.05E2,2.1E2,1.05E2,2.45E2,3.5E1,3.5E1,1.75E2,1.05E2,1.05E2,1.68E3,3.5E1,1.4E2,2.8E2,3.5E1,3.5E1,5.6E2,7E1,1.12E3,2.8E2,9.45E2,1.75E2,7E1,7E1,7E1,3.5E1,1.75E2,7E1,1.05E2,1.4E2,1.05E2,7E1,7E1,1.05E2,7E1,7E1,3.5E1,3.5E1,5.6E2,7E1,7E1,3.5E1],"tree_param":{"num_deleted":"0","num_feature":"9","num_nodes":"97","size_leaf_vector":"1"}},{"base_weights":[-7.915355E-5,-4.4871053E-1,3.821024E-1,-8.039473E-1,-2.5901693E-1,1.9596922E-1,7.540082E-1,-9.118591E-1,5.230112E-1,-2.0623489E-1,-2.3386101E-1,1.3473208E-1,5.575907E-1,1.3276074E0,3.7060958E-1,-8.4508073E-1,-2.0521183E0,1.934605E-1,1.15843035E-1,6.737544E-1,-2.859785E-1,1.8894455E-1,-6.4256537E-1,1.145404E0,2.9354241E-1,1.0852857E0,1.8048104E0,-1.3805579E-1,5.159327E-1,-1.02202E0,-5.4406035E-1,-1.1586454E-1,-2.888588E-1,3.4769006E-2,3.3857028E-3,1.2148118E-1,1.2165381E-1,-2.0909952E-1,-6.9671935E-1,6.5335244E-2,3.4326005E-1,-2.7820063E-1,-9.176795E-2,5.006605E-2,1.3535677E0,4.8967764E-2,1.1368074E-1,1.4904202E0,5.128516E-1,1.8849654E0,1.3628076E-1,-5.981682E-1,7.77633E-1,5.983703E-1,2.0328198E-2,-1.5725149E-1,-6.382955E-2,-8.306494E-2,-2.9603455E-2,2.2741955E-2,1.2168355E-3,-2.9662354E-2,1.4120673E-1,-1.985961E-1,-4.0484317E-2,2.2075197E-2,-5.549049E-2,2.2980751E-2,9.511172E-2,4.2152002E-2,-6.0376342E-2,1.13561906E-1,1.7458121E-1,6.585524E-2,-5.526927E-3,6.306111E-2,1.8288068E-1,-4.8833262E-2,7.6483585E-2,1.685202E-1,2.0009866E-1,-1.0485112E-1,-1.3940032E-2,3.1405184E-2,1.2196133E-1,6.8171576E-2,-6.860384E-3,4.2263325E-2,-7.736715E-2],"categories":[],"categories_nodes":[],"categories_segments":[],"categories_sizes":[],"default_left":[0,0,0,0,0,0,0,0,0,0,0,0,0,0,0,0,0,0,0,0,0,0,0,0,0,0,0,0,0,0,0,0,0,0,0,0,0,0,0,0,0,0,0,0,0,0,0,0,0,0,0,0,0,0,0,0,0,0,0,0,0,0,0,0,0,0,0,0,0,0,0,0,0,0,0,0,0,0,0,0,0,0,0,0,0,0,0,0,0],"id":3,"left_children":[1,3,5,7,9,11,13,15,17,-1,19,21,23,25,27,29,31,33,-1,35,37,39,41,43,45,47,49,51,53,55,57,-1,-1,-1,-1,59,-1,61,63,65,67,-1,69,-1,71,73,-1,75,77,79,-1,81,83,85,87,-1,-1,-1,-1,-1,-1,-1,-1,-1,-1,-1,-1,-1,-1,-1,-1,-1,-1,-1,-1,-1,-1,-1,-1,-1,-1,-1,-1,-1,-1,-1,-1,-1,-1],"loss_changes":[1.5006061E3,2.7108826E2,3.2700494E2,2.0109247E2,1.18644775E2,6.970272E1,3.460973E2,9.694922E1,2.1972588E1,0E0,1.2275375E2,1.1372872E2,7.044003E1,7.100806E1,7.000032E1,6.474359E1,4.971591E1,1.7359338E0,0E0,4.2119064E1,7.725035E1,4.806523E1,2.0714287E2,1.8246246E1,6.511656E1,9.687094E1,4.906555E0,8.936363E1,3.0058197E1,1.6186108E2,3.216725E1,0E0,0E0,0E0,0E0,8.1944263E-1,0E0,2.935657E2,1.4444739E2,1.3517284E2,7.708888E1,0E0,3.7309456E1,0E0,7.0792694E0,1.5667556E1,0E0,7.041992E1,4.477524E1,7.070923E-1,0E0,2.8984852E1,1.4164436E1,3.5123596E1,3.418657E1,0E0,0E0,0E0,0E0,0E0,0E0,0E0,0E0,0E0,0E0,0E0,0E0,0E0,0E0,0E0,0E0,0E0,0E0,0E0,0E0,0E0,0E0,0E0,0E0,0E0,0E0,0E0,0E0,0E0,0E0,0E0,0E0,0E0,0E0],"parents":[2147483647,0,0,1,1,2,2,3,3,4,4,5,5,6,6,7,7,8,8,10,10,11,11,12,12,13,13,14,14,15,15,16,16,17,17,19,19,20,20,21,21,22,22,23,23,24,24,25,25,26,26,27,27,28,28,29,29,30,30,35,35,37,37,38,38,39,39,40,40,42,42,44,44,45,45,47,47,48,48,49,49,51,51,52,52,53,53,54,54],"right_children":[2,4,6,8,10,12,14,16,18,-1,20,22,24,26,28,30,32,34,-1,36,38,40,42,44,46,48,50,52,54,56,58,-1,-1,-1,-1,60,-1,62,64,66,68,-1,70,-1,72,74,-1,76,78,80,-1,82,84,86,88,-1,-1,-1,-1,-1,-1,-1,-1,-1,-1,-1,-1,-1,-1,-1,-1,-1,-1,-1,-1,-1,-1,-1,-1,-1,-1,-1,-1,-1,-1,-1,-1,-1,-1],"split_conditions":[1.8771428E2,1.8485715E2,1.9157143E2,6.956586E3,2.988786E3,6.78423E3,2E0,6.9444473E3,4E0,-2.0623489E-1,3.300693E3,6.7035083E3,6.842004E3,5.247411E3,1.9185715E2,4E0,1.5E1,1.5E1,1.15843035E-1,2.9E1,6.06756E3,1.89E2,2E0,6.533979E3,5E0,4.9617993E3,6.3868755E3,4E0,3E1,1.8242857E2,4.8910347E3,-1.1586454E-1,-2.888588E-1,3.4769006E-2,3.3857028E-3,3E0,1.2165381E-1,5.828653E3,6.2711123E3,4E0,4E0,-2.7820063E-1,6.8465933E3,5.006605E-2,1.8E1,6.8611743E3,1.1368074E-1,3.4999285E3,5.001784E3,5.3694946E3,1.3628076E-1,3E0,8E0,5.766996E3,4E0,-1.5725149E-1,-6.382955E-2,-8.306494E-2,-2.9603455E-2,2.2741955E-2,1.2168355E-3,-2.9662354E-2,1.4120673E-1,-1.985961E-1,-4.0484317E-2,2.2075197E-2,-5.549049E-2,2.2980751E-2,9.511172E-2,4.2152002E-2,-6.0376342E-2,1.13561906E-1,1.7458121E-1,6.585524E-2,-5.526927E-3,6.306111E-2,1.8288068E-1,-4.8833262E-2,7.6483585E-2,1.685202E-1,2.0009866E-1,-1.0485112E-1,-1.3940032E-2,3.1405184E-2,1.2196133E-1,6.8171576E-2,-6.860384E-3,4.2263325E-2,-7.736715E-2],"split_indices":[8,8,8,6,6,6,4,6,1,0,6,6,6,6,8,1,0,0,0,0,6,8,1,5,1,6,6,1,0,8,5,0,0,0,0,1,0,6,5,4,4,0,5,0,0,6,0,6,6,5,0,1,0,6,4,0,0,0,0,0,0,0,0,0,0,0,0,0,0,0,0,0,0,0,0,0,0,0,0,0,0,0,0,0,0,0,0,0,0],"split_type":[0,0,0,0,0,0,0,0,0,0,0,0,0,0,0,0,0,0,0,0,0,0,0,0,0,0,0,0,0,0,0,0,0,0,0,0,0,0,0,0,0,0,0,0,0,0,0,0,0,0,0,0,0,0,0,0,0,0,0,0,0,0,0,0,0,0,0,0,0,0,0,0,0,0,0,0,0,0,0,0,0,0,0,0,0,0,0,0,0],"sum_hessian":[8.75E3,4.025E3,4.725E3,1.4E3,2.625E3,3.15E3,1.575E3,1.295E3,1.05E2,3.5E1,2.59E3,2.695E3,4.55E2,6.3E2,9.45E2,1.225E3,7E1,7E1,3.5E1,1.4E2,2.45E3,2.52E3,1.75E2,1.4E2,3.15E2,4.2E2,2.1E2,2.1E2,7.35E2,7.7E2,4.55E2,3.5E1,3.5E1,3.5E1,3.5E1,7E1,7E1,2.065E3,3.85E2,1.4E3,1.12E3,3.5E1,1.4E2,3.5E1,1.05E2,2.45E2,7E1,2.45E2,1.75E2,1.75E2,3.5E1,1.4E2,7E1,6.3E2,1.05E2,3.15E2,4.55E2,2.1E2,2.45E2,3.5E1,3.5E1,1.96E3,1.05E2,7E1,3.15E2,1.12E3,2.8E2,9.45E2,1.75E2,7E1,7E1,7E1,3.5E1,3.5E1,2.1E2,7E1,1.75E2,3.5E1,1.4E2,7E1,1.05E2,7E1,7E1,3.5E1,3.5E1,5.6E2,7E1,7E1,3.5E1],"tree_param":{"num_deleted":"0","num_feature":"9","num_nodes":"89","size_leaf_vector":"1"}},{"base_weights":[-2.9110442E-5,-4.0403068E-1,3.4413305E-1,-8.479012E-1,-2.8050333E-1,1.7646757E-1,6.7913926E-1,-1.0729024E0,-5.083042E-1,-1.8739513E-1,-6.52049E-1,4.767449E-3,2.9087126E-1,1.1960799E0,3.3361214E-1,-1.4157593E0,-5.5434483E-1,-2.4748382E-1,-8.950048E-1,-6.65118E-2,-5.777204E-1,-5.328253E-1,-2.6077515E-1,-3.66903E-1,2.4145414E-1,8.463577E-2,6.1440027E-1,9.774066E-1,1.6267211E0,-1.2408677E-1,4.6437415E-1,-1.6610173E0,-9.1420084E-1,-2.5355427E-2,-1.5970654E0,-4.793569E-1,8.9299254E-2,-3.617239E-2,-1.0676756E-1,-1.3043739E-1,1.6054938E0,-1.2508073E0,-2.0829284E-1,-8.904152E-1,1.238691E-1,1.7054644E-1,-6.650809E-1,9.44526E-1,-1.6140668E-1,3.297666E-1,-3.4410754E-1,-9.6260124E-1,7.8159654E-1,1.3423783E0,4.617224E-1,1.6985619E0,1.23031296E-1,-5.391946E-1,7.0203E-1,5.386295E-1,1.7963985E-2,-2.0239337E-1,-1.5773468E-1,-4.390658E-2,-1.1422383E-1,-1.304547E-1,4.093262E-2,-1.304547E-1,-1.845221E-1,9.708891E-3,-1.3332146E-1,-9.421989E-3,-1.9588159E-1,2.2474332E-1,9.1895744E-2,-7.68485E-2,-1.7213295E-1,-3.363247E-2,1.0458036E-1,-7.2166906E-3,-1.3557915E-1,-1.8103989E-2,2.7652634E-2,-1.14031315E-1,5.0402444E-2,-8.683463E-2,9.399933E-2,1.1481803E-1,3.2599706E-2,6.863308E-2,-3.937869E-2,5.8106232E-2,-1.7314376E-2,-7.113724E-2,3.9025787E-2,-1.495647E-1,-4.0281665E-2,2.3885408E-1,5.8885384E-2,7.614553E-2,1.7695801E-1,7.981265E-3,1.0253944E-1,1.5190536E-1,1.8027745E-1,-9.451372E-2,-1.2565774E-2,2.8351784E-2,1.10104136E-1,3.7300598E-2,8.665389E-2,3.809655E-2,-6.984546E-2],"categories":[],"categories_nodes":[],"categories_segments":[],"categories_sizes":[],"default_left":[0,0,0,0,0,0,0,0,0,0,0,0,0,0,0,0,0,0,0,0,0,0,0,0,0,0,0,0,0,0,0,0,0,0,0,0,0,0,0,0,0,0,0,0,0,0,0,0,0,0,0,0,0,0,0,0,0,0,0,0,0,0,0,0,0,0,0,0,0,0,0,0,0,0,0,0,0,0,0,0,0,0,0,0,0,0,0,0,0,0,0,0,0,0,0,0,0,0,0,0,0,0,0,0,0,0,0,0,0,0,0,0,0],"id":4,"left_children":[1,3,5,7,9,11,13,15,17,19,21,23,25,27,29,31,33,35,37,39,41,43,-1,45,47,49,51,53,55,57,59,61,63,65,67,69,-1,-1,-1,71,73,75,77,79,81,83,85,87,89,91,93,95,97,99,101,103,-1,105,107,109,111,-1,-1,-1,-1,-1,-1,-1,-1,-1,-1,-1,-1,-1,-1,-1,-1,-1,-1,-1,-1,-1,-1,-1,-1,-1,-1,-1,-1,-1,-1,-1,-1,-1,-1,-1,-1,-1,-1,-1,-1,-1,-1,-1,-1,-1,-1,-1,-1,-1,-1,-1,-1],"loss_changes":[1.216896E3,2.205083E2,2.6533472E2,6.638959E1,1.0888336E2,6.1894096E1,2.8110138E2,9.2733215E1,3.5180145E1,1.1891198E2,1.4573834E2,1.1101806E2,1.2612152E2,5.7831116E1,5.667537E1,3.7353027E1,1.1634462E2,5.6226128E1,1.2597359E1,2.0606787E2,1.479389E2,1.4006735E2,0E0,7.8798904E1,2.1853058E2,1.2160699E2,1.9481253E2,7.861664E1,3.9191284E0,7.2736244E1,2.4387497E1,3.2146606E0,1.0983429E1,7.8935776E1,2.7467194E0,8.675712E1,0E0,0E0,0E0,1.22718445E2,2.9225464E1,4.6562256E1,6.232953E1,1.4688843E2,9.871386E0,7.751189E1,1.0391318E2,3.5022186E1,9.6995995E1,9.311571E1,1.138241E2,2.0583275E1,2.0487149E2,5.9702667E1,3.7806E1,5.5392456E-1,0E0,2.355122E1,1.1544205E1,3.3946075E1,2.7832558E1,0E0,0E0,0E0,0E0,0E0,0E0,0E0,0E0,0E0,0E0,0E0,0E0,0E0,0E0,0E0,0E0,0E0,0E0,0E0,0E0,0E0,0E0,0E0,0E0,0E0,0E0,0E0,0E0,0E0,0E0,0E0,0E0,0E0,0E0,0E0,0E0,0E0,0E0,0E0,0E0,0E0,0E0,0E0,0E0,0E0,0E0,0E0,0E0,0E0,0E0,0E0,0E0],"parents":[2147483647,0,0,1,1,2,2,3,3,4,4,5,5,6,6,7,7,8,8,9,9,10,10,11,11,12,12,13,13,14,14,15,15,16,16,17,17,18,18,19,19,20,20,21,21,23,23,24,24,25,25,26,26,27,27,28,28,29,29,30,30,31,31,32,32,33,33,34,34,35,35,39,39,40,40,41,41,42,42,43,43,44,44,45,45,46,46,47,47,48,48,49,49,50,50,51,51,52,52,53,53,54,54,55,55,57,57,58,58,59,59,60,60],"right_children":[2,4,6,8,10,12,14,16,18,20,22,24,26,28,30,32,34,36,38,40,42,44,-1,46,48,50,52,54,56,58,60,62,64,66,68,70,-1,-1,-1,72,74,76,78,80,82,84,86,88,90,92,94,96,98,100,102,104,-1,106,108,110,112,-1,-1,-1,-1,-1,-1,-1,-1,-1,-1,-1,-1,-1,-1,-1,-1,-1,-1,-1,-1,-1,-1,-1,-1,-1,-1,-1,-1,-1,-1,-1,-1,-1,-1,-1,-1,-1,-1,-1,-1,-1,-1,-1,-1,-1,-1,-1,-1,-1,-1,-1,-1],"split_conditions":[1.8771428E2,1.8357143E2,1.9157143E2,4E0,5E0,2E0,2E0,1.8242857E2,1.8242857E2,6.06756E3,6.616346E3,1.8842857E2,1.8942857E2,5.247411E3,1.9185715E2,3E0,3E0,5.4985E3,3.18029E3,5.828653E3,6.4258555E3,5.3617197E3,-2.6077515E-1,3.6426094E3,1.8942857E2,1.8842857E2,3.110511E3,4.9617993E3,6.3868755E3,4E0,3E1,3.696107E3,7E0,3.3104885E3,1.2E1,4.80361E3,8.9299254E-2,-3.617239E-2,-1.0676756E-1,5.8100156E3,1.7E1,2E0,7.0260073E3,3.659749E3,5.8216816E3,3.178628E3,6.709285E3,3.2E1,3.4337417E3,4E0,6.625047E3,4E0,3.2287566E3,3.5696416E3,2E0,5.3694946E3,1.23031296E-1,3E0,8E0,4E0,4E0,-2.0239337E-1,-1.5773468E-1,-4.390658E-2,-1.1422383E-1,-1.304547E-1,4.093262E-2,-1.304547E-1,-1.845221E-1,9.708891E-3,-1.3332146E-1,-9.421989E-3,-1.9588159E-1,2.2474332E-1,9.1895744E-2,-7.68485E-2,-1.7213295E-1,-3.363247E-2,1.0458036E-1,-7.2166906E-3,-1.3557915E-1,-1.8103989E-2,2.7652634E-2,-1.14031315E-1,5.0402444E-2,-8.683463E-2,9.399933E-2,1.1481803E-1,3.2599706E-2,6.863308E-2,-3.937869E-2,5.8106232E-2,-1.7314376E-2,-7.113724E-2,3.9025787E-2,-1.495647E-1,-4.0281665E-2,2.3885408E-1,5.8885384E-2,7.614553E-2,1.7695801E-1,7.981265E-3,1.0253944E-1,1.5190536E-1,1.8027745E-1,-9.451372E-2,-1.2565774E-2,2.8351784E-2,1.10104136E-1,3.7300598E-2,8.665389E-2,3.809655E-2,-6.984546E-2],"split_indices":[8,8,8,1,1,4,4,8,8,6,5,8,8,6,8,1,1,6,6,6,6,5,0,6,8,8,6,6,6,1,0,6,0,6,0,6,0,0,0,6,0,4,6,5,6,6,6,0,6,4,6,1,6,6,1,5,0,1,0,4,4,0,0,0,0,0,0,0,0,0,0,0,0,0,0,0,0,0,0,0,0,0,0,0,0,0,0,0,0,0,0,0,0,0,0,0,0,0,0,0,0,0,0,0,0,0,0,0,0,0,0,0,0],"split_type":[0,0,0,0,0,0,0,0,0,0,0,0,0,0,0,0,0,0,0,0,0,0,0,0,0,0,0,0,0,0,0,0,0,0,0,0,0,0,0,0,0,0,0,0,0,0,0,0,0,0,0,0,0,0,0,0,0,0,0,0,0,0,0,0,0,0,0,0,0,0,0,0,0,0,0,0,0,0,0,0,0,0,0,0,0,0,0,0,0,0,0,0,0,0,0,0,0,0,0,0,0,0,0,0,0,0,0,0,0,0,0,0,0],"sum_hessian":[8.75E3,4.025E3,4.725E3,8.75E2,3.15E3,3.15E3,1.575E3,5.25E2,3.5E2,2.52E3,6.3E2,1.26E3,1.89E3,6.3E2,9.45E2,3.15E2,2.1E2,2.1E2,1.4E2,1.925E3,5.95E2,5.95E2,3.5E1,4.9E2,7.7E2,1.155E3,7.35E2,4.2E2,2.1E2,2.1E2,7.35E2,2.1E2,1.05E2,1.4E2,7E1,1.75E2,3.5E1,3.5E1,1.05E2,1.855E3,7E1,2.1E2,3.85E2,3.85E2,2.1E2,1.75E2,3.15E2,2.8E2,4.9E2,7.35E2,4.2E2,7E1,6.65E2,2.45E2,1.75E2,1.75E2,3.5E1,1.4E2,7E1,6.3E2,1.05E2,3.5E1,1.75E2,3.5E1,7E1,3.5E1,1.05E2,3.5E1,3.5E1,1.05E2,7E1,1.82E3,3.5E1,3.5E1,3.5E1,1.05E2,1.05E2,3.5E2,3.5E1,1.4E2,2.45E2,7E1,1.4E2,3.5E1,1.4E2,2.8E2,3.5E1,2.1E2,7E1,1.05E2,3.85E2,4.9E2,2.45E2,2.8E2,1.4E2,3.5E1,3.5E1,7E1,5.95E2,1.05E2,1.4E2,1.05E2,7E1,7E1,1.05E2,7E1,7E1,3.5E1,3.5E1,4.2E2,2.1E2,7E1,3.5E1],"tree_param":{"num_deleted":"0","num_feature":"9","num_nodes":"113","size_leaf_vector":"1"}},{"base_weights":[-6.954162E-5,-3.7923962E-1,2.9786637E-1,-6.572367E-1,-2.2018078E-1,1.4901063E-1,6.118235E-1,-7.460819E-1,4.352217E-1,-1.852683E-1,-1.9576427E-1,-6.788842E-2,2.9357156E-1,1.07777E0,3.0038157E-1,-6.9188505E-1,-1.6714236E0,1.7105451E-1,9.4412856E-2,6.1621916E-1,-2.4598128E-1,-4.6003756E-1,2.1753773E-1,-6.8664694E-1,3.4836245E-1,8.8053066E-1,1.4662058E0,-1.11529455E-1,4.180621E-1,-8.373277E-1,-4.4445482E-1,-9.4220005E-2,-2.3542188E-1,2.7409395E-2,6.3263574E-3,1.17872536E-1,1.1058867E-1,-1.5385155E-1,-6.133546E-1,1.5312964E-1,-7.384246E-1,8.5059744E-1,-1.452063E-1,-8.6901516E-1,-3.0790275E-2,2.1530513E-1,2.7780712E-1,1.2091705E0,4.1617882E-1,1.5305924E0,1.11069895E-1,-4.8603505E-1,6.3377786E-1,4.751094E-1,-1.2294608E-1,-1.275824E-1,-5.3162128E-2,-7.034368E-2,-2.2051316E-2,2.1446865E-2,1.8002192E-3,-5.2545227E-2,-2.9134162E-4,-1.1271931E-1,-1.7012991E-2,-1.02944806E-1,4.5397833E-2,-8.990932E-2,8.4860645E-2,1.0339059E-1,2.9385582E-2,6.1834425E-2,-3.545098E-2,-1.3502386E-1,-3.6365245E-2,-1.12708E-3,3.9491914E-2,4.9336582E-2,1.4910623E-1,-4.486158E-2,6.3402586E-2,9.473858E-2,1.549143E-1,-8.519554E-2,-1.1326911E-2,2.5595454E-2,9.939962E-2,4.064731E-2,1.6649543E-1,-3.4802016E-2,1.0554314E-2],"categories":[],"categories_nodes":[],"categories_segments":[],"categories_sizes":[],"default_left":[0,0,0,0,0,0,0,0,0,0,0,0,0,0,0,0,0,0,0,0,0,0,0,0,0,0,0,0,0,0,0,0,0,0,0,0,0,0,0,0,0,0,0,0,0,0,0,0,0,0,0,0,0,0,0,0,0,0,0,0,0,0,0,0,0,0,0,0,0,0,0,0,0,0,0,0,0,0,0,0,0,0,0,0,0,0,0,0,0,0,0],"id":5,"left_children":[1,3,5,7,9,11,13,15,17,-1,19,21,23,25,27,29,31,33,-1,35,37,39,41,43,45,47,49,51,53,55,57,-1,-1,-1,-1,59,-1,61,63,65,67,69,71,73,-1,-1,75,77,79,81,-1,83,85,87,89,-1,-1,-1,-1,-1,-1,-1,-1,-1,-1,-1,-1,-1,-1,-1,-1,-1,-1,-1,-1,-1,-1,-1,-1,-1,-1,-1,-1,-1,-1,-1,-1,-1,-1,-1,-1],"loss_changes":[9.886993E2,1.7013837E2,2.289538E2,1.3630536E2,9.733414E1,1.043071E2,2.2837787E2,6.3838684E1,1.4088768E1,0E0,9.86649E1,1.490784E2,1.0743846E2,4.705298E1,4.5902916E1,4.3747803E1,3.3133484E1,7.7123666E-1,0E0,3.4277054E1,7.693913E1,9.5874535E1,1.7717491E2,7.05394E0,2.4018376E2,6.3743286E1,3.1296997E0,5.9202724E1,2.2773636E1,1.0267517E2,2.6291443E1,0E0,0E0,0E0,0E0,6.810822E-1,0E0,1.0213603E2,1.0366037E2,6.3084084E1,9.918758E1,2.8373734E1,7.868778E1,1.6775642E1,0E0,0E0,6.165349E1,4.89021E1,3.344159E1,4.3652344E-1,0E0,1.9136276E1,9.408606E0,5.3713196E1,3.688048E0,0E0,0E0,0E0,0E0,0E0,0E0,0E0,0E0,0E0,0E0,0E0,0E0,0E0,0E0,0E0,0E0,0E0,0E0,0E0,0E0,0E0,0E0,0E0,0E0,0E0,0E0,0E0,0E0,0E0,0E0,0E0,0E0,0E0,0E0,0E0,0E0],"parents":[2147483647,0,0,1,1,2,2,3,3,4,4,5,5,6,6,7,7,8,8,10,10,11,11,12,12,13,13,14,14,15,15,16,16,17,17,19,19,20,20,21,21,22,22,23,23,24,24,25,25,26,26,27,27,28,28,29,29,30,30,35,35,37,37,38,38,39,39,40,40,41,41,42,42,43,43,46,46,47,47,48,48,49,49,51,51,52,52,53,53,54,54],"right_children":[2,4,6,8,10,12,14,16,18,-1,20,22,24,26,28,30,32,34,-1,36,38,40,42,44,46,48,50,52,54,56,58,-1,-1,-1,-1,60,-1,62,64,66,68,70,72,74,-1,-1,76,78,80,82,-1,84,86,88,90,-1,-1,-1,-1,-1,-1,-1,-1,-1,-1,-1,-1,-1,-1,-1,-1,-1,-1,-1,-1,-1,-1,-1,-1,-1,-1,-1,-1,-1,-1,-1,-1,-1,-1,-1,-1],"split_conditions":[1.8685715E2,1.8485715E2,1.9157143E2,6.956586E3,2.988786E3,2E0,2E0,6.9444473E3,4E0,-1.852683E-1,3.300693E3,1.8842857E2,3.110511E3,5.247411E3,1.9185715E2,4E0,1.5E1,1.5E1,9.4412856E-2,2.9E1,4E0,3.6426094E3,1.8942857E2,5E0,3.2287566E3,4.9617993E3,6.3868755E3,4E0,5.766996E3,1.8242857E2,4.8910347E3,-9.4220005E-2,-2.3542188E-1,2.7409395E-2,6.3263574E-3,3E0,1.1058867E-1,3.6514397E3,2.8E1,3.178628E3,6.709285E3,3.2E1,3.4337417E3,4E0,-3.0790275E-2,2.1530513E-1,3.727133E3,3.4999285E3,5.001784E3,3.755E3,1.11069895E-1,3E0,8E0,5.6082363E3,2E0,-1.275824E-1,-5.3162128E-2,-7.034368E-2,-2.2051316E-2,2.1446865E-2,1.8002192E-3,-5.2545227E-2,-2.9134162E-4,-1.1271931E-1,-1.7012991E-2,-1.02944806E-1,4.5397833E-2,-8.990932E-2,8.4860645E-2,1.0339059E-1,2.9385582E-2,6.1834425E-2,-3.545098E-2,-1.3502386E-1,-3.6365245E-2,-1.12708E-3,3.9491914E-2,4.9336582E-2,1.4910623E-1,-4.486158E-2,6.3402586E-2,9.473858E-2,1.549143E-1,-8.519554E-2,-1.1326911E-2,2.5595454E-2,9.939962E-2,4.064731E-2,1.6649543E-1,-3.4802016E-2,1.0554314E-2],"split_indices":[8,8,8,6,6,4,4,6,1,0,6,8,6,6,8,1,0,0,0,0,4,6,8,0,6,6,6,1,6,8,5,0,0,0,0,1,0,6,0,6,6,0,6,1,0,0,6,6,6,2,0,1,0,6,0,0,0,0,0,0,0,0,0,0,0,0,0,0,0,0,0,0,0,0,0,0,0,0,0,0,0,0,0,0,0,0,0,0,0,0,0],"split_type":[0,0,0,0,0,0,0,0,0,0,0,0,0,0,0,0,0,0,0,0,0,0,0,0,0,0,0,0,0,0,0,0,0,0,0,0,0,0,0,0,0,0,0,0,0,0,0,0,0,0,0,0,0,0,0,0,0,0,0,0,0,0,0,0,0,0,0,0,0,0,0,0,0,0,0,0,0,0,0,0,0,0,0,0,0,0,0,0,0,0,0],"sum_hessian":[8.75E3,3.85E3,4.9E3,1.4E3,2.45E3,3.325E3,1.575E3,1.295E3,1.05E2,3.5E1,2.415E3,1.33E3,1.995E3,6.3E2,9.45E2,1.225E3,7E1,7E1,3.5E1,1.4E2,2.275E3,5.6E2,7.7E2,1.05E2,1.89E3,4.2E2,2.1E2,2.1E2,7.35E2,7.7E2,4.55E2,3.5E1,3.5E1,3.5E1,3.5E1,7E1,7E1,1.82E3,4.55E2,1.75E2,3.85E2,2.8E2,4.9E2,7E1,3.5E1,7E1,1.82E3,2.45E2,1.75E2,1.75E2,3.5E1,1.4E2,7E1,6.65E2,7E1,3.15E2,4.55E2,2.1E2,2.45E2,3.5E1,3.5E1,5.25E2,1.295E3,2.1E2,2.45E2,3.5E1,1.4E2,3.5E2,3.5E1,2.1E2,7E1,1.05E2,3.85E2,3.5E1,3.5E1,5.25E2,1.295E3,7E1,1.75E2,3.5E1,1.4E2,7E0,1.68E2,7E1,7E1,3.5E1,3.5E1,6.3E2,3.5E1,3.5E1,3.5E1],"tree_param":{"num_deleted":"0","num_feature":"9","num_nodes":"91","size_leaf_vector":"1"}},{"base_weights":[-3.7059363E-5,-3.4150025E-1,2.6827037E-1,-5.9185183E-1,-1.9825909E-1,9.864598E-2,4.9428165E-1,-6.7193884E-1,3.9290896E-1,-1.672561E-1,-1.7620896E-1,3.2599084E-2,4.3822354E-1,7.0190716E-1,3.554178E-1,-6.229193E-1,-1.5089253E0,1.544254E-1,8.523374E-2,2.8168193E-1,-2.5391635E-1,8.540802E-2,-6.189963E-1,8.581123E-1,1.7367326E-1,-1.05873756E-1,9.709085E-1,1.1048607E0,2.863898E-1,-7.538296E-1,-4.0021148E-1,-8.505981E-2,-2.1253379E-1,2.474467E-2,5.71145E-3,1.0277314E-1,1.844279E-1,-7.811688E-1,-1.4592129E-1,1.3822837E-1,-1.5921004E-1,-2.3396991E-1,-1.752779E-1,6.9313484E-1,1.4804374E-1,-8.088632E-2,9.277352E-2,1.09663166E-1,-3.5123923E-1,7.929931E-1,1.3212947E0,1.5088092E-1,8.844803E-2,1.16497464E-1,6.249924E-1,-1.1486452E-1,-4.7857624E-2,-1.4145567E-2,-6.2052555E-2,-1.0874917E-1,4.458871E-2,-3.629126E-2,-2.4255185E-1,-2.6237228E-4,-5.8669973E-2,-5.751706E-2,1.9925574E-2,-1.1696241E-1,6.843544E-2,6.375276E-2,-4.496715E-2,9.2455156E-2,4.5195565E-2,9.403586E-3,-9.338146E-2,-1.3796665E-1,3.409265E-2,1.0890613E-1,3.7466493E-2,1.3789512E-1,1.00271545E-1,-2.691638E-2,2.6134243E-2,1.626181E-1,3.9806392E-2],"categories":[],"categories_nodes":[],"categories_segments":[],"categories_sizes":[],"default_left":[0,0,0,0,0,0,0,0,0,0,0,0,0,0,0,0,0,0,0,0,0,0,0,0,0,0,0,0,0,0,0,0,0,0,0,0,0,0,0,0,0,0,0,0,0,0,0,0,0,0,0,0,0,0,0,0,0,0,0,0,0,0,0,0,0,0,0,0,0,0,0,0,0,0,0,0,0,0,0,0,0,0,0,0,0],"id":6,"left_children":[1,3,5,7,9,11,13,15,17,-1,19,21,23,25,27,29,31,33,-1,35,37,39,41,43,45,47,49,51,53,55,57,-1,-1,-1,-1,59,-1,61,63,65,67,-1,69,71,-1,73,-1,-1,75,77,79,-1,-1,81,83,-1,-1,-1,-1,-1,-1,-1,-1,-1,-1,-1,-1,-1,-1,-1,-1,-1,-1,-1,-1,-1,-1,-1,-1,-1,-1,-1,-1,-1,-1],"loss_changes":[8.0183295E2,1.37982E2,1.87841E2,1.107561E2,7.9383736E1,6.2806664E1,6.0325806E1,5.2233276E1,1.1482388E1,0E0,8.6036446E1,8.077886E1,5.050422E1,1.8284717E2,6.491832E1,3.5442047E1,2.7004074E1,6.2855804E-1,0E0,9.793684E1,1.1752542E2,2.8073093E1,1.3396721E2,1.7043716E1,5.401403E1,6.2641426E1,3.828827E1,8.101868E0,6.6427216E1,8.323816E1,2.5907661E1,0E0,0E0,0E0,0E0,1.295382E2,0E0,2.4052335E2,1.0838526E2,7.787142E1,3.2980728E2,0E0,3.173371E1,7.4517593E0,0E0,3.1568182E1,0E0,0E0,1.2575457E2,5.1734314E1,2.4930115E0,0E0,0E0,4.3139248E1,8.705118E1,0E0,0E0,0E0,0E0,0E0,0E0,0E0,0E0,0E0,0E0,0E0,0E0,0E0,0E0,0E0,0E0,0E0,0E0,0E0,0E0,0E0,0E0,0E0,0E0,0E0,0E0,0E0,0E0,0E0,0E0],"parents":[2147483647,0,0,1,1,2,2,3,3,4,4,5,5,6,6,7,7,8,8,10,10,11,11,12,12,13,13,14,14,15,15,16,16,17,17,19,19,20,20,21,21,22,22,23,23,24,24,25,25,26,26,27,27,28,28,29,29,30,30,35,35,37,37,38,38,39,39,40,40,42,42,43,43,45,45,48,48,49,49,50,50,53,53,54,54],"right_children":[2,4,6,8,10,12,14,16,18,-1,20,22,24,26,28,30,32,34,-1,36,38,40,42,44,46,48,50,52,54,56,58,-1,-1,-1,-1,60,-1,62,64,66,68,-1,70,72,-1,74,-1,-1,76,78,80,-1,-1,82,84,-1,-1,-1,-1,-1,-1,-1,-1,-1,-1,-1,-1,-1,-1,-1,-1,-1,-1,-1,-1,-1,-1,-1,-1,-1,-1,-1,-1,-1,-1],"split_conditions":[1.8685715E2,1.8485715E2,1.9028572E2,6.956586E3,2.988786E3,6.78423E3,2E0,6.9444473E3,4E0,-1.672561E-1,3.4366155E3,6.7035083E3,6.8611743E3,1.9157143E2,1.9042857E2,4E0,1.5E1,1.5E1,8.523374E-2,3.5269272E3,3.6514397E3,4E0,2E0,3.6E1,5E0,3.4337417E3,5.247411E3,3E0,4E0,1.8242857E2,4.826251E3,-8.505981E-2,-2.1253379E-1,2.474467E-2,5.71145E-3,2E0,1.844279E-1,3.63946E3,4E0,1.8771428E2,3.712974E3,-2.3396991E-1,1.8E1,1.8E1,1.4804374E-1,4E0,9.277352E-2,1.09663166E-1,3.8293022E3,4.9617993E3,6.3868755E3,1.5088092E-1,8.844803E-2,1.9171428E2,1.9157143E2,-1.1486452E-1,-4.7857624E-2,-1.4145567E-2,-6.2052555E-2,-1.0874917E-1,4.458871E-2,-3.629126E-2,-2.4255185E-1,-2.6237228E-4,-5.8669973E-2,-5.751706E-2,1.9925574E-2,-1.1696241E-1,6.843544E-2,6.375276E-2,-4.496715E-2,9.2455156E-2,4.5195565E-2,9.403586E-3,-9.338146E-2,-1.3796665E-1,3.409265E-2,1.0890613E-1,3.7466493E-2,1.3789512E-1,1.00271545E-1,-2.691638E-2,2.6134243E-2,1.626181E-1,3.9806392E-2],"split_indices":[8,8,8,6,6,6,4,6,1,0,6,6,6,8,8,1,0,0,0,5,6,4,1,0,1,6,6,1,4,8,6,0,0,0,0,1,0,6,4,8,6,0,0,0,0,1,0,0,6,6,6,0,0,8,8,0,0,0,0,0,0,0,0,0,0,0,0,0,0,0,0,0,0,0,0,0,0,0,0,0,0,0,0,0,0],"split_type":[0,0,0,0,0,0,0,0,0,0,0,0,0,0,0,0,0,0,0,0,0,0,0,0,0,0,0,0,0,0,0,0,0,0,0,0,0,0,0,0,0,0,0,0,0,0,0,0,0,0,0,0,0,0,0,0,0,0,0,0,0,0,0,0,0,0,0,0,0,0,0,0,0,0,0,0,0,0,0,0,0,0,0,0,0],"sum_hessian":[8.75E3,3.85E3,4.9E3,1.4E3,2.45E3,2.8E3,2.1E3,1.295E3,1.05E2,3.5E1,2.415E3,2.345E3,4.55E2,8.4E2,1.26E3,1.225E3,7E1,7E1,3.5E1,3.5E2,2.065E3,2.17E3,1.75E2,1.75E2,2.8E2,2.1E2,6.3E2,1.05E2,1.155E3,7.7E2,4.55E2,3.5E1,3.5E1,3.5E1,3.5E1,3.15E2,3.5E1,3.5E2,1.715E3,1.785E3,3.85E2,3.5E1,1.4E2,1.4E2,3.5E1,2.1E2,7E1,3.5E1,1.75E2,4.2E2,2.1E2,3.5E1,7E1,7.7E2,3.85E2,3.15E2,4.55E2,2.1E2,2.45E2,7E1,2.45E2,2.8E2,7E1,1.295E3,4.2E2,1.4E2,1.645E3,1.75E2,2.1E2,3.5E1,1.05E2,7E1,7E1,1.75E2,3.5E1,7E1,1.05E2,2.45E2,1.75E2,1.75E2,3.5E1,2.1E2,5.6E2,7E1,3.15E2],"tree_param":{"num_deleted":"0","num_feature":"9","num_nodes":"85","size_leaf_vector":"1"}},{"base_weights":[-3.0697174E-5,-3.0755886E-1,2.4161203E-1,-6.2353516E-1,-2.1444638E-1,8.8779785E-2,4.452491E-1,-7.920359E-1,-3.692476E-1,-1.2562612E-1,-5.6892055E-1,2.9211825E-2,3.950466E-1,6.321806E-1,3.2022566E-1,-1.0341443E0,-4.2569327E-1,-1.4701074E-1,-6.99196E-1,-9.924396E-3,-4.7213224E-1,1.1442488E-1,-8.532433E-1,7.682865E-2,-5.5831856E-1,7.739231E-1,1.5633729E-1,-7.831767E-1,7.616983E-1,9.966321E-1,2.5792524E-1,-1.2553252E0,-5.8411294E-1,3.882807E-2,-1.3421978E0,-1.2248167E-1,7.428484E-2,-2.4441665E-2,-8.4705316E-2,-7.032132E-2,1.4499495E0,-1.0558205E0,-1.5184635E-1,3.5812888E-1,-4.9890302E-2,-5.2352797E-2,-1.2520772E0,5.6440752E-2,6.7905617E-1,-2.1122275E-1,-1.5761612E-1,6.247963E-1,1.3365053E-1,-7.3195636E-2,8.3626844E-2,-1.5219937E-1,-2.260473E-3,5.9913933E-1,1.1902949E0,1.3621177E-1,7.972785E-2,1.0484656E-1,5.630178E-1,-1.591451E-1,-1.17943965E-1,-1.6066605E-2,-7.905915E-2,-1.07950106E-1,4.182717E-2,-1.07950106E-1,-1.5676112E-1,8.5276775E-2,-4.478527E-2,-3.3925765E-3,-1.7678383E-1,2.029471E-1,8.301518E-2,-6.642266E-2,-1.437454E-1,6.5738164E-2,-3.3318605E-2,1.5314102E-2,5.5316873E-2,-1.838437E-2,2.156814E-2,3.5641547E-2,-1.254494E-1,-1.4920925E-1,4.2280674E-2,8.6815795E-3,-8.132513E-2,8.864133E-2,4.5283638E-2,1.08169345E-2,-9.3582846E-2,8.333969E-2,4.073957E-2,8.4686065E-3,-8.430285E-2,2.3240596E-2,7.205414E-2,1.4839338E-1,1.1234694E-1,-1.794595E-2,2.6734179E-2,1.4658546E-1,3.583835E-2],"categories":[],"categories_nodes":[],"categories_segments":[],"categories_sizes":[],"default_left":[0,0,0,0,0,0,0,0,0,0,0,0,0,0,0,0,0,0,0,0,0,0,0,0,0,0,0,0,0,0,0,0,0,0,0,0,0,0,0,0,0,0,0,0,0,0,0,0,0,0,0,0,0,0,0,0,0,0,0,0,0,0,0,0,0,0,0,0,0,0,0,0,0,0,0,0,0,0,0,0,0,0,0,0,0,0,0,0,0,0,0,0,0,0,0,0,0,0,0,0,0,0,0,0,0,0,0],"id":7,"left_children":[1,3,5,7,9,11,13,15,17,19,21,23,25,27,29,31,33,35,37,39,41,43,45,47,49,51,53,55,57,59,61,63,65,67,69,-1,71,-1,-1,73,75,77,79,81,83,85,87,89,91,-1,93,95,-1,97,-1,-1,-1,99,101,-1,-1,103,105,-1,-1,-1,-1,-1,-1,-1,-1,-1,-1,-1,-1,-1,-1,-1,-1,-1,-1,-1,-1,-1,-1,-1,-1,-1,-1,-1,-1,-1,-1,-1,-1,-1,-1,-1,-1,-1,-1,-1,-1,-1,-1,-1,-1],"loss_changes":[6.503782E2,1.13167816E2,1.5249094E2,3.7242096E1,9.362637E1,5.1089027E1,4.889966E1,4.6213165E1,2.563488E1,9.5452835E1,1.1589487E2,6.567537E1,4.1120255E1,1.5476349E2,5.288202E1,3.0720856E1,8.9882385E1,5.0417374E1,9.274139E0,1.5757697E2,1.1126015E2,7.0656576E0,1.3441122E2,2.6617546E1,1.0925439E2,1.3930664E1,4.391592E1,3.9862167E1,5.300415E1,6.6372757E0,5.3929832E1,3.5049744E0,9.140839E0,6.0283863E1,2.5120544E0,0E0,7.192154E1,0E0,0E0,1.0595806E2,2.3817474E1,3.0578156E1,5.6862656E1,2.7539244E0,3.81052E0,6.9734116E1,1.1359216E2,5.557256E1,2.9290886E0,0E0,2.9265318E1,6.0548096E0,0E0,2.5716864E1,0E0,0E0,0E0,2.480951E1,2.4732056E0,0E0,0E0,3.566693E1,7.078869E1,0E0,0E0,0E0,0E0,0E0,0E0,0E0,0E0,0E0,0E0,0E0,0E0,0E0,0E0,0E0,0E0,0E0,0E0,0E0,0E0,0E0,0E0,0E0,0E0,0E0,0E0,0E0,0E0,0E0,0E0,0E0,0E0,0E0,0E0,0E0,0E0,0E0,0E0,0E0,0E0,0E0,0E0,0E0,0E0],"parents":[2147483647,0,0,1,1,2,2,3,3,4,4,5,5,6,6,7,7,8,8,9,9,10,10,11,11,12,12,13,13,14,14,15,15,16,16,17,17,18,18,19,19,20,20,21,21,22,22,23,23,24,24,25,25,26,26,27,27,28,28,29,29,30,30,31,31,32,32,33,33,34,34,36,36,39,39,40,40,41,41,42,42,43,43,44,44,45,45,46,46,47,47,48,48,50,50,51,51,53,53,57,57,58,58,61,61,62,62],"right_children":[2,4,6,8,10,12,14,16,18,20,22,24,26,28,30,32,34,36,38,40,42,44,46,48,50,52,54,56,58,60,62,64,66,68,70,-1,72,-1,-1,74,76,78,80,82,84,86,88,90,92,-1,94,96,-1,98,-1,-1,-1,100,102,-1,-1,104,106,-1,-1,-1,-1,-1,-1,-1,-1,-1,-1,-1,-1,-1,-1,-1,-1,-1,-1,-1,-1,-1,-1,-1,-1,-1,-1,-1,-1,-1,-1,-1,-1,-1,-1,-1,-1,-1,-1,-1,-1,-1,-1,-1,-1],"split_conditions":[1.8685715E2,1.8357143E2,1.9028572E2,4E0,5E0,6.78423E3,2E0,1.8242857E2,1.8242857E2,6.06756E3,1.7E1,6.7035083E3,6.8611743E3,1.9042857E2,1.9042857E2,3E0,3E0,3.8086216E3,3.18029E3,5.828653E3,6.4258555E3,5.846696E3,3.659749E3,6.6687764E3,2E0,3.6E1,5E0,2E0,5.247411E3,3E0,4E0,3.696107E3,7E0,3.3104885E3,1.2E1,-1.2248167E-1,4.80361E3,-2.4441665E-2,-8.4705316E-2,5.8100156E3,1.7E1,2E0,3E0,1E1,6.5058076E3,4.6E1,1.8671428E2,6.6485947E3,3.2E1,-2.1122275E-1,3.9E1,1.8E1,1.3365053E-1,4E0,8.3626844E-2,-1.5219937E-1,-2.260473E-3,3.608355E3,5.28123E3,1.3621177E-1,7.972785E-2,1.9185715E2,1.9157143E2,-1.591451E-1,-1.17943965E-1,-1.6066605E-2,-7.905915E-2,-1.07950106E-1,4.182717E-2,-1.07950106E-1,-1.5676112E-1,8.5276775E-2,-4.478527E-2,-3.3925765E-3,-1.7678383E-1,2.029471E-1,8.301518E-2,-6.642266E-2,-1.437454E-1,6.5738164E-2,-3.3318605E-2,1.5314102E-2,5.5316873E-2,-1.838437E-2,2.156814E-2,3.5641547E-2,-1.254494E-1,-1.4920925E-1,4.2280674E-2,8.6815795E-3,-8.132513E-2,8.864133E-2,4.5283638E-2,1.08169345E-2,-9.3582846E-2,8.333969E-2,4.073957E-2,8.4686065E-3,-8.430285E-2,2.3240596E-2,7.205414E-2,1.4839338E-1,1.1234694E-1,-1.794595E-2,2.6734179E-2,1.4658546E-1,3.583835E-2],"split_indices":[8,8,8,1,1,6,4,8,8,6,0,6,6,8,8,1,1,6,6,6,6,5,5,6,1,0,1,1,6,1,4,6,0,6,0,0,6,0,0,6,0,4,0,0,5,0,8,6,0,0,0,0,0,1,0,0,0,5,6,0,0,8,8,0,0,0,0,0,0,0,0,0,0,0,0,0,0,0,0,0,0,0,0,0,0,0,0,0,0,0,0,0,0,0,0,0,0,0,0,0,0,0,0,0,0,0,0],"split_type":[0,0,0,0,0,0,0,0,0,0,0,0,0,0,0,0,0,0,0,0,0,0,0,0,0,0,0,0,0,0,0,0,0,0,0,0,0,0,0,0,0,0,0,0,0,0,0,0,0,0,0,0,0,0,0,0,0,0,0,0,0,0,0,0,0,0,0,0,0,0,0,0,0,0,0,0,0,0,0,0,0,0,0,0,0,0,0,0,0,0,0,0,0,0,0,0,0,0,0,0,0,0,0,0,0,0,0],"sum_hessian":[8.75E3,3.85E3,4.9E3,8.75E2,2.975E3,2.8E3,2.1E3,5.25E2,3.5E2,2.38E3,5.95E2,2.345E3,4.55E2,8.4E2,1.26E3,3.15E2,2.1E2,2.1E2,1.4E2,1.785E3,5.95E2,1.75E2,4.2E2,2.17E3,1.75E2,1.75E2,2.8E2,7E1,7.7E2,1.05E2,1.155E3,2.1E2,1.05E2,1.4E2,7E1,3.5E1,1.75E2,3.5E1,1.05E2,1.715E3,7E1,2.1E2,3.85E2,7E1,1.05E2,1.4E2,2.8E2,2.1E3,7E1,3.5E1,1.4E2,1.4E2,3.5E1,2.1E2,7E1,3.5E1,3.5E1,5.6E2,2.1E2,3.5E1,7E1,7.7E2,3.85E2,3.5E1,1.75E2,3.5E1,7E1,3.5E1,1.05E2,3.5E1,3.5E1,7E1,1.05E2,1.68E3,3.5E1,3.5E1,3.5E1,1.05E2,1.05E2,7E1,3.15E2,3.5E1,3.5E1,7E1,3.5E1,1.05E2,3.5E1,2.45E2,3.5E1,2.03E3,7E1,3.5E1,3.5E1,1.05E2,3.5E1,7E1,7E1,1.75E2,3.5E1,1.4E2,4.2E2,3.5E1,1.75E2,2.8E2,4.9E2,7E1,3.15E2],"tree_param":{"num_deleted":"0","num_feature":"9","num_nodes":"107","size_leaf_vector":"1"}},{"base_weights":[-7.941292E-5,-3.587148E-1,1.687221E-1,-3.869538E-1,3.6289972E-1,4.1946337E-2,4.0101373E-1,-5.484371E-1,-2.3729694E-1,1.3521624E-1,8.018615E-2,1.10160604E-1,-2.3069973E-1,5.6920177E-1,2.885259E-1,-5.075396E-1,-1.2469155E0,-1.5066545E-1,-2.0367016E-1,1.827219E-2,8.39546E-3,-4.669062E-2,2.6694036E-1,-1.2093678E0,-1.1646011E-2,-1.0125201E-1,7.924926E-1,3.641577E-1,-1.7979611E-1,-4.4776106E-1,-8.6162835E-1,-6.8554826E-2,-1.7736462E-1,9.562377E-2,-2.6705736E-1,-2.4632387E-1,3.0248392E-1,1.3206565E-1,8.712466E-1,-1.7269718E-2,-1.5500355E0,1.5654131E0,-2.112174E-1,9.674194E-2,-3.1926858E-1,6.502732E-1,1.0725015E0,2.1279185E-1,6.8051416E-1,-4.7642726E-1,2.65594E-1,-2.1580914E-2,-5.4674078E-2,-1.1257317E-1,-4.551976E-2,-3.2245435E-2,3.578942E-2,3.7555967E-3,-4.038445E-2,7.512137E-2,-2.7516289E-2,3.1562004E-2,-5.092116E-2,-3.561089E-2,1.047318E-1,-1.2168973E-1,-2.1640015E-1,8.97851E-2,2.1894915E-1,-8.658705E-2,8.782446E-3,-1.18007176E-1,2.603191E-2,9.2272624E-2,2.6576346E-2,1.339664E-1,1.011761E-1,1.4886475E-2,1.4516835E-1,8.2078E-2,1.1579271E-2,2.1736887E-3,-7.223073E-2,-3.655847E-2,8.893951E-2],"categories":[],"categories_nodes":[],"categories_segments":[],"categories_sizes":[],"default_left":[0,0,0,0,0,0,0,0,0,0,0,0,0,0,0,0,0,0,0,0,0,0,0,0,0,0,0,0,0,0,0,0,0,0,0,0,0,0,0,0,0,0,0,0,0,0,0,0,0,0,0,0,0,0,0,0,0,0,0,0,0,0,0,0,0,0,0,0,0,0,0,0,0,0,0,0,0,0,0,0,0,0,0,0,0],"id":8,"left_children":[1,3,5,7,9,11,13,15,17,19,-1,21,23,25,27,29,31,-1,33,-1,-1,35,37,39,41,43,45,47,49,51,53,-1,-1,-1,55,57,59,61,63,-1,65,67,69,-1,71,73,75,77,79,81,83,-1,-1,-1,-1,-1,-1,-1,-1,-1,-1,-1,-1,-1,-1,-1,-1,-1,-1,-1,-1,-1,-1,-1,-1,-1,-1,-1,-1,-1,-1,-1,-1,-1,-1],"loss_changes":[5.298302E2,5.7218384E1,1.7523387E2,6.502429E1,1.0485677E1,7.164767E1,3.958481E1,3.6388763E1,5.9493973E1,1.5756011E-1,0E0,7.577763E1,1.6527357E2,1.25983154E2,4.473014E1,2.556482E1,1.977803E1,0E0,1.0068819E2,0E0,0E0,1.0749275E2,1.2548509E2,4.952791E1,1.9892899E2,4.9469353E1,2.4430725E1,5.1858917E1,2.3379053E1,2.4011414E1,1.8379364E1,0E0,0E0,0E0,4.4983475E1,4.388247E1,1.4562202E2,1.4859207E2,6.1097656E1,0E0,1.9047394E1,2.761354E1,1.0990226E2,0E0,8.811552E1,4.3859085E1,2.0686035E0,5.8074177E1,2.7708084E1,1.2999495E1,2.8279978E1,0E0,0E0,0E0,0E0,0E0,0E0,0E0,0E0,0E0,0E0,0E0,0E0,0E0,0E0,0E0,0E0,0E0,0E0,0E0,0E0,0E0,0E0,0E0,0E0,0E0,0E0,0E0,0E0,0E0,0E0,0E0,0E0,0E0,0E0],"parents":[2147483647,0,0,1,1,2,2,3,3,4,4,5,5,6,6,7,7,8,8,9,9,11,11,12,12,13,13,14,14,15,15,16,16,18,18,21,21,22,22,23,23,24,24,25,25,26,26,27,27,28,28,29,29,30,30,34,34,35,35,36,36,37,37,38,38,40,40,41,41,42,42,44,44,45,45,46,46,47,47,48,48,49,49,50,50],"right_children":[2,4,6,8,10,12,14,16,18,20,-1,22,24,26,28,30,32,-1,34,-1,-1,36,38,40,42,44,46,48,50,52,54,-1,-1,-1,56,58,60,62,64,-1,66,68,70,-1,72,74,76,78,80,82,84,-1,-1,-1,-1,-1,-1,-1,-1,-1,-1,-1,-1,-1,-1,-1,-1,-1,-1,-1,-1,-1,-1,-1,-1,-1,-1,-1,-1,-1,-1,-1,-1,-1,-1],"split_conditions":[1.8614285E2,6.956586E3,1.9028572E2,1.8485715E2,4E0,4E0,2E0,6.9444473E3,2.988786E3,1.5E1,8.018615E-2,2E0,3.6990679E3,1.9157143E2,5.766996E3,2.7E1,1.5E1,-1.5066545E-1,3.300693E3,1.827219E-2,8.39546E-3,1.8842857E2,1.8942857E2,2.800751E3,3.8251729E3,3.4337417E3,5.247411E3,4E0,4E0,4.826251E3,3.8086216E3,-6.8554826E-2,-1.7736462E-1,9.562377E-2,6.4258555E3,1.8671428E2,6.5244287E3,1.8842857E2,3.110511E3,-1.7269718E-2,3.4048423E3,2.9E1,1.8685715E2,9.674194E-2,3.8293022E3,4.9617993E3,5.28123E3,5.6082363E3,3E1,4E0,2E0,-2.1580914E-2,-5.4674078E-2,-1.1257317E-1,-4.551976E-2,-3.2245435E-2,3.578942E-2,3.7555967E-3,-4.038445E-2,7.512137E-2,-2.7516289E-2,3.1562004E-2,-5.092116E-2,-3.561089E-2,1.047318E-1,-1.2168973E-1,-2.1640015E-1,8.97851E-2,2.1894915E-1,-8.658705E-2,8.782446E-3,-1.18007176E-1,2.603191E-2,9.2272624E-2,2.6576346E-2,1.339664E-1,1.011761E-1,1.4886475E-2,1.4516835E-1,8.2078E-2,1.1579271E-2,2.1736887E-3,-7.223073E-2,-3.655847E-2,8.893951E-2],"split_indices":[8,6,8,8,1,4,4,6,6,0,0,4,6,8,6,0,0,0,6,0,0,8,8,6,5,6,6,4,1,6,6,0,0,0,6,8,6,8,6,0,5,0,8,0,6,6,6,6,0,0,0,0,0,0,0,0,0,0,0,0,0,0,0,0,0,0,0,0,0,0,0,0,0,0,0,0,0,0,0,0,0,0,0,0,0],"split_type":[0,0,0,0,0,0,0,0,0,0,0,0,0,0,0,0,0,0,0,0,0,0,0,0,0,0,0,0,0,0,0,0,0,0,0,0,0,0,0,0,0,0,0,0,0,0,0,0,0,0,0,0,0,0,0,0,0,0,0,0,0,0,0,0,0,0,0,0,0,0,0,0,0,0,0,0,0,0,0,0,0,0,0,0,0],"sum_hessian":[8.75E3,2.8E3,5.95E3,2.695E3,1.05E2,3.85E3,2.1E3,1.295E3,1.4E3,7E1,3.5E1,3.08E3,7.7E2,8.4E2,1.26E3,1.225E3,7E1,3.5E1,1.365E3,3.5E1,3.5E1,1.54E3,1.54E3,1.4E2,6.3E2,2.1E2,6.3E2,1.085E3,1.75E2,1.05E3,1.75E2,3.5E1,3.5E1,7E1,1.295E3,9.8E2,5.6E2,1.26E3,2.8E2,3.5E1,1.05E2,7E1,5.6E2,3.5E1,1.75E2,4.2E2,2.1E2,7.35E2,3.5E2,1.05E2,7E1,3.15E2,7.35E2,1.05E2,7E1,1.19E3,1.05E2,3.5E2,6.3E2,3.15E2,2.45E2,9.8E2,2.8E2,3.5E1,2.45E2,7E1,3.5E1,3.5E1,3.5E1,1.75E2,3.85E2,7E1,1.05E2,2.45E2,1.75E2,3.5E1,1.75E2,7E2,3.5E1,2.8E2,7E1,3.5E1,7E1,3.5E1,3.5E1],"tree_param":{"num_deleted":"0","num_feature":"9","num_nodes":"85","size_leaf_vector":"1"}},{"base_weights":[-5.9471964E-5,-2.510376E-1,1.971486E-1,-5.1299953E-1,-1.7384347E-1,7.402804E-2,3.6119598E-1,-6.6616654E-1,-2.8200564E-1,-9.328855E-2,-4.95366E-1,2.4033958E-2,3.310721E-1,5.127077E-1,2.598617E-1,-8.69262E-1,-3.588475E-1,-7.568875E-2,-5.887493E-1,8.619155E-3,-3.9851317E-1,1.01015024E-1,-7.435078E-1,6.616263E-2,-4.9576932E-1,6.82647E-1,1.096904E-1,-6.6169363E-1,6.201912E-1,8.6207604E-1,2.0441656E-1,-1.0686076E0,-4.6425098E-1,5.422389E-2,-1.1741182E0,-2.9214394E-1,9.846391E-2,-1.996745E-2,-7.1533364E-1,-4.3901265E-2,1.2778645E0,-9.1564244E-1,-1.1480129E-1,3.2364643E-1,-4.9058985E-2,-3.1575684E-2,-1.0980947E0,4.5953803E-2,6.6324127E-1,-1.867607E-1,-1.4199683E-1,2.42859E-2,7.900919E-1,-7.343181E-2,2.3275794E-1,-1.2592931E-1,-4.571385E-3,4.7230873E-1,9.338741E-1,1.21521845E-1,6.70876E-1,-5.4013148E-2,3.3353388E-1,-1.0000085E-1,-1.3742971E-1,-9.189129E-3,-6.465144E-2,-9.5357105E-2,3.9598234E-2,-9.5357105E-2,-1.3620509E-1,1.986707E-2,-1.0207947E-1,-6.578725E-2,-8.087895E-2,-1.0558203E-3,-1.5996175E-1,1.8014765E-1,7.1875624E-2,-5.5639733E-2,-1.2662493E-1,5.5728346E-2,-2.6544437E-2,1.6960038E-2,4.687023E-2,-1.9892141E-2,2.4786578E-2,3.3198357E-2,-1.1011787E-1,-1.3056955E-1,3.5101306E-2,7.2216108E-3,-7.059433E-2,8.497413E-2,4.583179E-2,1.0094571E-2,-8.533833E-2,1.0052675E-1,5.6378808E-2,6.288908E-3,6.505631E-2,6.0140144E-2,1.1555624E-2,1.1173707E-1,8.5454375E-2,5.489148E-2,7.742018E-2,-5.630986E-2,5.5661775E-2,5.674115E-2,-7.6314653E-3],"categories":[],"categories_nodes":[],"categories_segments":[],"categories_sizes":[],"default_left":[0,0,0,0,0,0,0,0,0,0,0,0,0,0,0,0,0,0,0,0,0,0,0,0,0,0,0,0,0,0,0,0,0,0,0,0,0,0,0,0,0,0,0,0,0,0,0,0,0,0,0,0,0,0,0,0,0,0,0,0,0,0,0,0,0,0,0,0,0,0,0,0,0,0,0,0,0,0,0,0,0,0,0,0,0,0,0,0,0,0,0,0,0,0,0,0,0,0,0,0,0,0,0,0,0,0,0,0,0,0,0],"id":9,"left_children":[1,3,5,7,9,11,13,15,17,19,21,23,25,27,29,31,33,35,37,39,41,43,45,47,49,51,53,55,57,59,61,63,65,67,69,71,-1,-1,73,75,77,79,81,83,85,87,89,91,93,-1,95,-1,97,-1,99,-1,-1,101,103,-1,105,107,109,-1,-1,-1,-1,-1,-1,-1,-1,-1,-1,-1,-1,-1,-1,-1,-1,-1,-1,-1,-1,-1,-1,-1,-1,-1,-1,-1,-1,-1,-1,-1,-1,-1,-1,-1,-1,-1,-1,-1,-1,-1,-1,-1,-1,-1,-1,-1,-1],"loss_changes":[4.3317947E2,7.7785416E1,9.896175E1,3.0805603E1,7.7032845E1,3.59868E1,3.2124115E1,3.2518417E1,2.2168966E1,7.406383E1,8.827539E1,5.1406963E1,3.5416626E1,1.0656877E2,4.1928383E1,2.501683E1,7.112107E1,4.8714993E1,6.801525E0,1.19113174E2,8.733744E1,5.8962474E0,1.0624335E2,2.6165369E1,8.515086E1,8.124641E0,2.93584E1,2.6078186E1,3.532422E1,6.341957E0,3.859114E1,3.0503693E0,7.13455E0,4.8941154E1,1.6439972E0,6.314611E1,0E0,0E0,3.7143707E-2,8.8996056E1,1.9490837E1,2.5871704E1,3.9228474E1,1.5070229E0,4.76608E0,5.5195404E1,8.4993195E1,4.1538486E1,2.3240433E0,0E0,2.4454615E1,0E0,6.2992477E0,0E0,1.7418219E1,0E0,0E0,2.4154984E1,2.6261444E0,0E0,4.6975136E-1,1.2030667E2,7.394703E1,0E0,0E0,0E0,0E0,0E0,0E0,0E0,0E0,0E0,0E0,0E0,0E0,0E0,0E0,0E0,0E0,0E0,0E0,0E0,0E0,0E0,0E0,0E0,0E0,0E0,0E0,0E0,0E0,0E0,0E0,0E0,0E0,0E0,0E0,0E0,0E0,0E0,0E0,0E0,0E0,0E0,0E0,0E0,0E0,0E0,0E0,0E0,0E0],"parents":[2147483647,0,0,1,1,2,2,3,3,4,4,5,5,6,6,7,7,8,8,9,9,10,10,11,11,12,12,13,13,14,14,15,15,16,16,17,17,18,18,19,19,20,20,21,21,22,22,23,23,24,24,25,25,26,26,27,27,28,28,29,29,30,30,31,31,32,32,33,33,34,34,35,35,38,38,39,39,40,40,41,41,42,42,43,43,44,44,45,45,46,46,47,47,48,48,50,50,52,52,54,54,57,57,58,58,60,60,61,61,62,62],"right_children":[2,4,6,8,10,12,14,16,18,20,22,24,26,28,30,32,34,36,38,40,42,44,46,48,50,52,54,56,58,60,62,64,66,68,70,72,-1,-1,74,76,78,80,82,84,86,88,90,92,94,-1,96,-1,98,-1,100,-1,-1,102,104,-1,106,108,110,-1,-1,-1,-1,-1,-1,-1,-1,-1,-1,-1,-1,-1,-1,-1,-1,-1,-1,-1,-1,-1,-1,-1,-1,-1,-1,-1,-1,-1,-1,-1,-1,-1,-1,-1,-1,-1,-1,-1,-1,-1,-1,-1,-1,-1,-1,-1,-1],"split_conditions":[1.8685715E2,1.8357143E2,1.9028572E2,4E0,5E0,6.78423E3,2E0,1.8242857E2,1.8242857E2,6.06756E3,1.7E1,6.7035083E3,6.8611743E3,1.9042857E2,1.9042857E2,3E0,3E0,5.4985E3,3.18029E3,5.828653E3,6.4258555E3,5.846696E3,3.659749E3,6.6687764E3,2E0,6.533979E3,6.924418E3,2E0,5.2255146E3,3E0,3E0,5.7287993E3,7E0,3.3104885E3,1.2E1,4.80361E3,9.846391E-2,-1.996745E-2,5E0,5.8100156E3,1.7E1,2E0,3E0,1E1,6.5058076E3,4.6E1,1.8671428E2,6.6485947E3,3.2E1,-1.867607E-1,3.9E1,2.42859E-2,4E0,-7.343181E-2,4E0,-1.2592931E-1,-4.571385E-3,4.9617993E3,4E0,1.21521845E-1,4E0,5.262953E3,5.345973E3,-1.0000085E-1,-1.3742971E-1,-9.189129E-3,-6.465144E-2,-9.5357105E-2,3.9598234E-2,-9.5357105E-2,-1.3620509E-1,1.986707E-2,-1.0207947E-1,-6.578725E-2,-8.087895E-2,-1.0558203E-3,-1.5996175E-1,1.8014765E-1,7.1875624E-2,-5.5639733E-2,-1.2662493E-1,5.5728346E-2,-2.6544437E-2,1.6960038E-2,4.687023E-2,-1.9892141E-2,2.4786578E-2,3.3198357E-2,-1.1011787E-1,-1.3056955E-1,3.5101306E-2,7.2216108E-3,-7.059433E-2,8.497413E-2,4.583179E-2,1.0094571E-2,-8.533833E-2,1.0052675E-1,5.6378808E-2,6.288908E-3,6.505631E-2,6.0140144E-2,1.1555624E-2,1.1173707E-1,8.5454375E-2,5.489148E-2,7.742018E-2,-5.630986E-2,5.5661775E-2,5.674115E-2,-7.6314653E-3],"split_indices":[8,8,8,1,1,6,4,8,8,6,0,6,6,8,8,1,1,6,6,6,6,5,5,6,1,5,6,1,6,1,1,6,0,6,0,6,0,0,1,6,0,4,0,0,5,0,8,6,0,0,0,0,1,0,1,0,0,6,0,0,1,5,6,0,0,0,0,0,0,0,0,0,0,0,0,0,0,0,0,0,0,0,0,0,0,0,0,0,0,0,0,0,0,0,0,0,0,0,0,0,0,0,0,0,0,0,0,0,0,0,0],"split_type":[0,0,0,0,0,0,0,0,0,0,0,0,0,0,0,0,0,0,0,0,0,0,0,0,0,0,0,0,0,0,0,0,0,0,0,0,0,0,0,0,0,0,0,0,0,0,0,0,0,0,0,0,0,0,0,0,0,0,0,0,0,0,0,0,0,0,0,0,0,0,0,0,0,0,0,0,0,0,0,0,0,0,0,0,0,0,0,0,0,0,0,0,0,0,0,0,0,0,0,0,0,0,0,0,0,0,0,0,0,0,0],"sum_hessian":[8.75E3,3.85E3,4.9E3,8.75E2,2.975E3,2.8E3,2.1E3,5.25E2,3.5E2,2.38E3,5.95E2,2.345E3,4.55E2,8.4E2,1.26E3,3.15E2,2.1E2,2.1E2,1.4E2,1.785E3,5.95E2,1.75E2,4.2E2,2.17E3,1.75E2,1.75E2,2.8E2,7E1,7.7E2,1.05E2,1.155E3,2.1E2,1.05E2,1.4E2,7E1,1.75E2,3.5E1,3.5E1,1.05E2,1.715E3,7E1,2.1E2,3.85E2,7E1,1.05E2,1.4E2,2.8E2,2.1E3,7E1,3.5E1,1.4E2,3.5E1,1.4E2,3.5E1,2.45E2,3.5E1,3.5E1,5.25E2,2.45E2,3.5E1,7E1,3.85E2,7.7E2,1.75E2,3.5E1,3.5E1,7E1,3.5E1,1.05E2,3.5E1,3.5E1,1.05E2,7E1,7E1,3.5E1,1.68E3,3.5E1,3.5E1,3.5E1,1.05E2,1.05E2,7E1,3.15E2,3.5E1,3.5E1,7E1,3.5E1,1.05E2,3.5E1,2.45E2,3.5E1,2.03E3,7E1,3.5E1,3.5E1,1.05E2,3.5E1,7E1,7E1,1.75E2,7E1,3.85E2,1.4E2,7E1,1.75E2,3.5E1,3.5E1,2.1E2,1.75E2,4.9E2,2.8E2],"tree_param":{"num_deleted":"0","num_feature":"9","num_nodes":"111","size_leaf_vector":"1"}},{"base_weights":[-1.0895056E-4,-3.106022E-1,1.3298856E-1,-3.3750138E-1,3.3207172E-1,3.260295E-2,3.2528722E-1,-3.0823382E-2,-4.0502685E-1,1.1563475E-2,7.497094E-2,9.569227E-2,-2.1955997E-1,4.6160263E-1,2.3411629E-1,-1.788094E-1,1.7006472E-1,-1.0872835E0,-3.5486943E-1,1.6980093E-2,3.3151478E-1,-1.0981219E0,-3.3228446E-2,-1.09359056E-1,6.517949E-1,7.782643E-1,1.8401785E-1,-9.247359E-1,7.197229E-2,-9.4055444E-2,-1.2186988E-1,2.805024E-1,-4.0483168E-1,-1.18103996E-1,2.7010202E-1,1.8746231E-1,1.8220471E-1,-1.6292838E-2,-1.4053751E0,1.410181E0,-2.0512249E-1,8.148978E-2,-2.9779023E-1,-1.1588308E-2,6.970711E-1,1.0970731E-1,6.056533E-1,6.5503106E-2,4.2026356E-1,-4.860075E-2,-1.7643188E-1,-1.359147E-1,2.5506241E-2,5.3376425E-2,2.3289802E-3,-2.1897845E-1,-3.679024E-2,-1.499881E-2,5.5986162E-2,-1.8643819E-2,3.615458E-2,-1.2050014E-1,3.2981645E-2,-1.1040419E-1,-1.9606331E-1,8.1158586E-2,1.9696045E-1,-7.105725E-2,7.170415E-3,-1.0312935E-1,1.963279E-2,1.04770556E-1,5.8712255E-2,4.9554985E-2,6.989331E-2,-2.3954445E-2,1.8011903E-2,1.21922724E-1,2.3941964E-2],"categories":[],"categories_nodes":[],"categories_segments":[],"categories_sizes":[],"default_left":[0,0,0,0,0,0,0,0,0,0,0,0,0,0,0,0,0,0,0,0,0,0,0,0,0,0,0,0,0,0,0,0,0,0,0,0,0,0,0,0,0,0,0,0,0,0,0,0,0,0,0,0,0,0,0,0,0,0,0,0,0,0,0,0,0,0,0,0,0,0,0,0,0,0,0,0,0,0,0],"id":10,"left_children":[1,3,5,7,9,11,13,15,17,-1,-1,19,21,23,25,27,-1,29,31,33,35,37,39,41,43,45,47,49,51,-1,-1,53,55,57,59,-1,61,-1,63,65,67,-1,69,-1,71,-1,73,75,77,-1,-1,-1,-1,-1,-1,-1,-1,-1,-1,-1,-1,-1,-1,-1,-1,-1,-1,-1,-1,-1,-1,-1,-1,-1,-1,-1,-1,-1,-1],"loss_changes":[3.6168408E2,4.550879E1,1.1824582E2,5.2193848E1,9.494883E0,6.4069786E1,2.6003174E1,1.1714654E2,7.031317E1,0E0,0E0,5.978291E1,1.3190875E2,9.139758E1,3.4232864E1,7.882081E1,0E0,1.572586E0,6.1253677E1,8.264157E1,1.8536209E2,4.0286133E1,1.6553284E2,3.6990173E1,2.2012756E1,5.168724E0,3.233886E1,3.81875E1,8.314618E1,0E0,0E0,9.172611E0,1.1692212E2,3.41513E1,3.517727E1,0E0,1.511066E2,0E0,1.5571045E1,2.217714E1,8.344449E1,0E0,6.3991432E1,0E0,2.2361725E1,0E0,3.8284302E-1,2.6999857E1,5.5480354E1,0E0,0E0,0E0,0E0,0E0,0E0,0E0,0E0,0E0,0E0,0E0,0E0,0E0,0E0,0E0,0E0,0E0,0E0,0E0,0E0,0E0,0E0,0E0,0E0,0E0,0E0,0E0,0E0,0E0,0E0],"parents":[2147483647,0,0,1,1,2,2,3,3,4,4,5,5,6,6,7,7,8,8,11,11,12,12,13,13,14,14,15,15,17,17,18,18,19,19,20,20,21,21,22,22,23,23,24,24,25,25,26,26,27,27,28,28,31,31,32,32,33,33,34,34,36,36,38,38,39,39,40,40,42,42,44,44,46,46,47,47,48,48],"right_children":[2,4,6,8,10,12,14,16,18,-1,-1,20,22,24,26,28,-1,30,32,34,36,38,40,42,44,46,48,50,52,-1,-1,54,56,58,60,-1,62,-1,64,66,68,-1,70,-1,72,-1,74,76,78,-1,-1,-1,-1,-1,-1,-1,-1,-1,-1,-1,-1,-1,-1,-1,-1,-1,-1,-1,-1,-1,-1,-1,-1,-1,-1,-1,-1,-1,-1],"split_conditions":[1.8585715E2,6.956586E3,1.9028572E2,3.4366155E3,4E0,4E0,2E0,3.480711E3,3.5692861E3,1.1563475E-2,7.497094E-2,3E0,3.6990679E3,1.9157143E2,1.9042857E2,2E0,1.7006472E-1,3.3527427E3,3.63946E3,1.8842857E2,6E0,2.800751E3,3.8251729E3,3.4337417E3,3.03085E3,3E0,4E0,3.3527427E3,2.988786E3,-9.4055444E-2,-1.2186988E-1,3E0,3.6514397E3,6.709285E3,3.6622725E3,1.8746231E-1,1.6E1,-1.6292838E-2,3.4048423E3,2.9E1,1.8685715E2,8.148978E-2,3.8293022E3,-1.1588308E-2,4.2092856E3,1.0970731E-1,4E0,1.9171428E2,1.9157143E2,-4.860075E-2,-1.7643188E-1,-1.359147E-1,2.5506241E-2,5.3376425E-2,2.3289802E-3,-2.1897845E-1,-3.679024E-2,-1.499881E-2,5.5986162E-2,-1.8643819E-2,3.615458E-2,-1.2050014E-1,3.2981645E-2,-1.1040419E-1,-1.9606331E-1,8.1158586E-2,1.9696045E-1,-7.105725E-2,7.170415E-3,-1.0312935E-1,1.963279E-2,1.04770556E-1,5.8712255E-2,4.9554985E-2,6.989331E-2,-2.3954445E-2,1.8011903E-2,1.21922724E-1,2.3941964E-2],"split_indices":[8,6,8,6,1,4,4,5,6,0,0,4,6,8,8,1,0,5,6,8,0,6,5,6,6,1,4,5,6,0,0,1,6,6,6,0,0,0,5,0,8,0,6,0,6,0,1,8,8,0,0,0,0,0,0,0,0,0,0,0,0,0,0,0,0,0,0,0,0,0,0,0,0,0,0,0,0,0,0],"split_type":[0,0,0,0,0,0,0,0,0,0,0,0,0,0,0,0,0,0,0,0,0,0,0,0,0,0,0,0,0,0,0,0,0,0,0,0,0,0,0,0,0,0,0,0,0,0,0,0,0,0,0,0,0,0,0,0,0,0,0,0,0,0,0,0,0,0,0,0,0,0,0,0,0,0,0,0,0,0,0],"sum_hessian":[8.75E3,2.625E3,6.125E3,2.52E3,1.05E2,4.025E3,2.1E3,4.55E2,2.065E3,7E1,3.5E1,3.22E3,8.05E2,8.4E2,1.26E3,4.2E2,3.5E1,1.4E2,1.925E3,2.415E3,8.05E2,1.4E2,6.65E2,2.1E2,6.3E2,1.05E2,1.155E3,1.05E2,3.15E2,7E1,7E1,1.4E2,1.785E3,1.575E3,8.4E2,7E1,7.35E2,3.5E1,1.05E2,7E1,5.95E2,3.5E1,1.75E2,3.5E1,5.95E2,3.5E1,7E1,7.7E2,3.85E2,7E1,3.5E1,3.5E1,2.8E2,7E1,7E1,3.5E1,1.75E3,1.505E3,7E1,1.4E2,7E2,7E1,6.65E2,7E1,3.5E1,3.5E1,3.5E1,2.1E2,3.85E2,7E1,1.05E2,1.4E2,4.55E2,3.5E1,3.5E1,2.1E2,5.6E2,7E1,3.15E2],"tree_param":{"num_deleted":"0","num_feature":"9","num_nodes":"79","size_leaf_vector":"1"}},{"base_weights":[-8.9894515E-5,-2.7973118E-1,1.1978247E-1,-3.039827E-1,2.996819E-1,2.9354863E-2,2.930056E-1,-2.8103026E-2,-3.6472672E-1,1.0423526E-1,6.768216E-2,8.617217E-2,-1.977393E-1,3.0730015E-1,-5.3548176E-2,-1.6172463E-1,1.5353082E-1,-9.800876E-1,-3.1948757E-1,1.1521922E-2,9.035587E-3,5.0169057E-1,4.6441857E-2,-8.913035E-1,-3.9753863E-3,2.8131062E-1,7.8520703E-1,-8.343857E-1,6.4426616E-2,-8.47824E-2,-1.0985471E-1,2.5284693E-1,-3.6449298E-1,9.952202E-2,1.6898017E-1,-4.8341308E-2,2.0037022E-1,-1.4388283E0,-5.161566E-1,1.2730806E0,-1.6559213E-1,3.0205077E-1,-8.361006E-2,8.896177E-2,5.5747457E-2,-1.2201468E-1,-5.0401688E-3,-1.2270085E-1,2.2964811E-2,4.811408E-2,2.099185E-3,-1.9768885E-1,-3.3113446E-2,3.4282252E-2,-1.0927116E-1,-5.9611965E-2,2.3433727E-3,-9.59038E-3,4.962871E-2,-1.7700152E-1,-1.0676739E-1,-8.9506574E-2,-3.167639E-2,7.326826E-2,1.7781152E-1,-6.3985296E-2,1.1997658E-2,2.7712706E-2,9.493231E-2],"categories":[],"categories_nodes":[],"categories_segments":[],"categories_sizes":[],"default_left":[0,0,0,0,0,0,0,0,0,0,0,0,0,0,0,0,0,0,0,0,0,0,0,0,0,0,0,0,0,0,0,0,0,0,0,0,0,0,0,0,0,0,0,0,0,0,0,0,0,0,0,0,0,0,0,0,0,0,0,0,0,0,0,0,0,0,0,0,0],"id":11,"left_children":[1,3,5,7,9,11,13,15,17,19,-1,21,23,25,-1,27,-1,29,31,-1,-1,33,35,37,39,41,43,45,47,-1,-1,49,51,53,-1,55,57,59,61,63,65,67,-1,-1,-1,-1,-1,-1,-1,-1,-1,-1,-1,-1,-1,-1,-1,-1,-1,-1,-1,-1,-1,-1,-1,-1,-1,-1,-1],"loss_changes":[2.9337808E2,3.6990723E1,9.594999E1,4.223677E1,7.7427845E0,5.1964035E1,2.5046387E1,9.550921E1,5.720102E1,4.131794E-4,0E0,5.3151146E1,1.0831296E2,2.5440002E1,0E0,6.40976E1,0E0,1.2778015E0,4.9702377E1,0E0,0E0,1.3409949E2,4.291834E1,3.5408127E1,1.3044518E2,4.569922E1,2.0244904E0,3.199614E1,6.7707596E1,0E0,0E0,7.453183E0,9.540915E1,6.1579586E1,0E0,7.160988E1,9.8328445E1,6.837616E0,7.7249584E0,1.8074493E1,7.605527E1,3.0807968E1,0E0,0E0,0E0,0E0,0E0,0E0,0E0,0E0,0E0,0E0,0E0,0E0,0E0,0E0,0E0,0E0,0E0,0E0,0E0,0E0,0E0,0E0,0E0,0E0,0E0,0E0,0E0],"parents":[2147483647,0,0,1,1,2,2,3,3,4,4,5,5,6,6,7,7,8,8,9,9,11,11,12,12,13,13,15,15,17,17,18,18,21,21,22,22,23,23,24,24,25,25,26,26,27,27,28,28,31,31,32,32,33,33,35,35,36,36,37,37,38,38,39,39,40,40,41,41],"right_children":[2,4,6,8,10,12,14,16,18,20,-1,22,24,26,-1,28,-1,30,32,-1,-1,34,36,38,40,42,44,46,48,-1,-1,50,52,54,-1,56,58,60,62,64,66,68,-1,-1,-1,-1,-1,-1,-1,-1,-1,-1,-1,-1,-1,-1,-1,-1,-1,-1,-1,-1,-1,-1,-1,-1,-1,-1,-1],"split_conditions":[1.8585715E2,6.956586E3,1.9028572E2,3.4366155E3,4E0,4E0,6.688627E3,3.480711E3,3.5692861E3,1.5E1,6.768216E-2,6E0,3.712974E3,6.331203E3,-5.3548176E-2,2E0,1.5353082E-1,3.3527427E3,3.63946E3,1.1521922E-2,9.035587E-3,3E0,3.5E1,1.88E2,3.8251729E3,5.8856353E3,6.467537E3,3.8E1,2.988786E3,-8.47824E-2,-1.0985471E-1,3E0,3.6514397E3,3.6426094E3,1.6898017E-1,3.6670232E3,2E0,6E0,5E0,2.9E1,1.8685715E2,5.9401865E3,-8.361006E-2,8.896177E-2,5.5747457E-2,-1.2201468E-1,-5.0401688E-3,-1.2270085E-1,2.2964811E-2,4.811408E-2,2.099185E-3,-1.9768885E-1,-3.3113446E-2,3.4282252E-2,-1.0927116E-1,-5.9611965E-2,2.3433727E-3,-9.59038E-3,4.962871E-2,-1.7700152E-1,-1.0676739E-1,-8.9506574E-2,-3.167639E-2,7.326826E-2,1.7781152E-1,-6.3985296E-2,1.1997658E-2,2.7712706E-2,9.493231E-2],"split_indices":[8,6,8,6,1,4,6,5,6,0,0,0,6,6,0,1,0,5,6,0,0,4,0,8,5,5,6,0,6,0,0,1,6,6,0,6,4,0,0,0,8,6,0,0,0,0,0,0,0,0,0,0,0,0,0,0,0,0,0,0,0,0,0,0,0,0,0,0,0],"split_type":[0,0,0,0,0,0,0,0,0,0,0,0,0,0,0,0,0,0,0,0,0,0,0,0,0,0,0,0,0,0,0,0,0,0,0,0,0,0,0,0,0,0,0,0,0,0,0,0,0,0,0,0,0,0,0,0,0,0,0,0,0,0,0,0,0,0,0,0,0],"sum_hessian":[8.75E3,2.625E3,6.125E3,2.52E3,1.05E2,4.025E3,2.1E3,4.55E2,2.065E3,7E1,3.5E1,3.22E3,8.05E2,2.065E3,3.5E1,4.2E2,3.5E1,1.4E2,1.925E3,3.5E1,3.5E1,2.8E2,2.94E3,1.75E2,6.3E2,1.96E3,1.05E2,1.05E2,3.15E2,7E1,7E1,1.4E2,1.785E3,2.1E2,7E1,1.82E3,1.12E3,7E1,1.05E2,7E1,5.6E2,1.925E3,3.5E1,7E1,3.5E1,7E1,3.5E1,3.5E1,2.8E2,7E1,7E1,3.5E1,1.75E3,1.75E2,3.5E1,2.1E2,1.61E3,5.6E2,5.6E2,3.5E1,3.5E1,3.5E1,7E1,3.5E1,3.5E1,2.1E2,3.5E2,1.855E3,7E1],"tree_param":{"num_deleted":"0","num_feature":"9","num_nodes":"69","size_leaf_vector":"1"}},{"base_weights":[-1.2239201E-4,-2.5189647E-1,1.0780429E-1,-6.621321E-1,-2.2233574E-1,5.139858E-2,3.332012E-1,-8.97174E-1,-3.0189863E-1,-1.1077171E-1,-2.0905095E-1,4.6882578E-4,1.3006708E-1,5.131535E-1,2.1269879E-1,-1.0697305E-1,-5.3193253E-2,-8.013461E-2,2.0593485E-2,4.6881568E-1,-2.400526E-1,-2.4098268E-2,4.945951E-1,2.035455E-1,-2.1055073E-2,2.6599526E-1,7.5822574E-1,2.756535E-1,-1.6406652E-1,-2.2738617E-2,8.152164E-2,-2.6447847E-1,2.705468E-1,-2.8876958E-3,-1.6737293E-1,5.951064E-1,1.8490633E-2,1.6508469E-1,1.5450881E-1,-1.06999926E-1,4.23393E-2,-3.3519262E-1,5.070086E-1,-1.3155991E-2,9.06444E-1,5.636067E-1,1.3068016E-1,1.9123776E-1,-8.602481E-2,-2.2188034E-2,-6.6619135E-2,9.410133E-3,6.110213E-2,6.139548E-3,-2.5967149E-2,7.614994E-2,5.023564E-2,1.0235766E-2,4.767483E-2,1.790165E-2,-2.8483933E-2,-2.84942E-3,-6.3258015E-2,2.9558325E-2,8.155167E-2,1.3863817E-1,6.583446E-2,-1.5433137E-3,8.511828E-2,3.520452E-2,-3.1140674E-2,-1.1356513E-2,4.907285E-2],"categories":[],"categories_nodes":[],"categories_segments":[],"categories_sizes":[],"default_left":[0,0,0,0,0,0,0,0,0,0,0,0,0,0,0,0,0,0,0,0,0,0,0,0,0,0,0,0,0,0,0,0,0,0,0,0,0,0,0,0,0,0,0,0,0,0,0,0,0,0,0,0,0,0,0,0,0,0,0,0,0,0,0,0,0,0,0,0,0,0,0,0,0],"id":12,"left_children":[1,3,5,7,9,11,13,15,17,-1,19,21,23,25,27,-1,-1,-1,-1,29,31,33,35,37,39,41,43,45,47,-1,-1,49,51,53,-1,55,-1,57,-1,-1,59,61,63,-1,65,67,69,71,-1,-1,-1,-1,-1,-1,-1,-1,-1,-1,-1,-1,-1,-1,-1,-1,-1,-1,-1,-1,-1,-1,-1,-1,-1],"loss_changes":[2.3781932E2,3.1697922E1,7.7866844E1,1.4631058E1,2.8597366E1,1.9636127E1,2.6476273E1,6.111603E0,1.817319E1,0E0,5.088475E1,3.6138317E1,2.1391003E1,2.9538986E1,1.7502522E1,0E0,0E0,0E0,0E0,2.574884E1,2.8893967E1,9.922571E1,4.2789E0,6.6614395E1,4.200501E1,3.581394E1,3.2562363E1,2.6267784E1,2.6384281E1,0E0,0E0,3.760173E1,6.3104696E0,4.62517E1,0E0,1.2533493E0,0E0,2.4603413E1,0E0,0E0,2.6702833E1,6.457763E0,1.12388E1,0E0,2.4211517E1,3.5148438E1,4.130977E1,6.53701E0,0E0,0E0,0E0,0E0,0E0,0E0,0E0,0E0,0E0,0E0,0E0,0E0,0E0,0E0,0E0,0E0,0E0,0E0,0E0,0E0,0E0,0E0,0E0,0E0,0E0],"parents":[2147483647,0,0,1,1,2,2,3,3,4,4,5,5,6,6,7,7,8,8,10,10,11,11,12,12,13,13,14,14,19,19,20,20,21,21,22,22,23,23,24,24,25,25,26,26,27,27,28,28,31,31,32,32,33,33,35,35,37,37,40,40,41,41,42,42,44,44,45,45,46,46,47,47],"right_children":[2,4,6,8,10,12,14,16,18,-1,20,22,24,26,28,-1,-1,-1,-1,30,32,34,36,38,40,42,44,46,48,-1,-1,50,52,54,-1,56,-1,58,-1,-1,60,62,64,-1,66,68,70,72,-1,-1,-1,-1,-1,-1,-1,-1,-1,-1,-1,-1,-1,-1,-1,-1,-1,-1,-1,-1,-1,-1,-1,-1,-1],"split_conditions":[1.8585715E2,1.8085715E2,1.9185715E2,3.8086216E3,2.988786E3,1.89E2,2E0,3E0,3E0,-1.1077171E-1,3.300693E3,6.709285E3,6.6438296E3,2E0,3E1,-1.0697305E-1,-5.3193253E-2,-8.013461E-2,2.0593485E-2,1.2E1,6.956586E3,6.681547E3,1.8E1,6.559584E3,6.6607656E3,1.9242857E2,3.3321426E3,5.32857E3,4E0,-2.2738617E-2,8.152164E-2,6.836165E3,4E0,4E0,-1.6737293E-1,4E0,1.8490633E-2,4E0,1.5450881E-1,-1.06999926E-1,4E0,2E0,5.262953E3,-1.3155991E-2,4.9617993E3,3.1520227E3,4E0,3E0,-8.602481E-2,-2.2188034E-2,-6.6619135E-2,9.410133E-3,6.110213E-2,6.139548E-3,-2.5967149E-2,7.614994E-2,5.023564E-2,1.0235766E-2,4.767483E-2,1.790165E-2,-2.8483933E-2,-2.84942E-3,-6.3258015E-2,2.9558325E-2,8.155167E-2,1.3863817E-1,6.583446E-2,-1.5433137E-3,8.511828E-2,3.520452E-2,-3.1140674E-2,-1.1356513E-2,4.907285E-2],"split_indices":[8,8,8,6,6,8,4,4,1,0,6,6,6,1,0,0,0,0,0,0,6,6,0,6,6,8,5,6,4,0,0,6,1,4,0,1,0,4,0,0,4,0,5,0,6,6,1,1,0,0,0,0,0,0,0,0,0,0,0,0,0,0,0,0,0,0,0,0,0,0,0,0,0],"split_type":[0,0,0,0,0,0,0,0,0,0,0,0,0,0,0,0,0,0,0,0,0,0,0,0,0,0,0,0,0,0,0,0,0,0,0,0,0,0,0,0,0,0,0,0,0,0,0,0,0,0,0,0,0,0,0,0,0,0,0,0,0,0,0,0,0,0,0,0,0,0,0,0,0],"sum_hessian":[8.75E3,2.625E3,6.125E3,1.75E2,2.45E3,4.9E3,1.225E3,1.05E2,7E1,3.5E1,2.415E3,2.975E3,1.925E3,4.9E2,7.35E2,7E1,3.5E1,3.5E1,3.5E1,1.05E2,2.31E3,2.835E3,1.4E2,1.295E3,6.3E2,2.45E2,2.45E2,6.3E2,1.05E2,3.5E1,7E1,2.205E3,1.05E2,2.8E3,3.5E1,1.05E2,3.5E1,1.26E3,3.5E1,3.5E1,5.95E2,7E1,1.75E2,3.5E1,2.1E2,2.1E2,4.2E2,7E1,3.5E1,1.995E3,2.1E2,7E1,3.5E1,2.24E3,5.6E2,3.5E1,7E1,1.05E3,2.1E2,4.2E2,1.75E2,3.5E1,3.5E1,1.05E2,7E1,7E1,1.4E2,7E1,1.4E2,2.8E2,1.4E2,3.5E1,3.5E1],"tree_param":{"num_deleted":"0","num_feature":"9","num_nodes":"73","size_leaf_vector":"1"}},{"base_weights":[-1.05746585E-4,-2.2681855E-1,9.707805E-2,-3.673937E-1,-1.563613E-1,2.34012E-2,2.3821366E-1,-4.9647433E-1,-1.729099E-1,1.230838E-1,-2.1774592E-1,6.995736E-2,-1.6267918E-1,2.501903E-1,-4.5572918E-2,-6.722814E-1,-2.3082742E-1,-5.7365346E-1,4.710996E-4,-4.1920196E-2,1.4076127E-1,-9.198715E-2,-1.6166548E-1,4.4369876E-1,3.422418E-2,-7.932994E-1,1.3472683E-2,2.2599836E-1,6.953808E-1,-8.475444E-1,-3.170665E-1,1.04533255E-1,-8.935743E-1,-2.052784E-2,-7.523556E-1,8.5188395E-1,-3.4299925E-1,-5.245241E-1,4.4098103E-1,2.4994749E-1,-2.1025974E-1,8.106665E-2,1.5151308E-1,-4.858465E-2,1.6871183E-1,-1.2733419E0,-4.6427745E-1,1.1749098E0,-1.335425E-1,2.4439992E-1,-7.647631E-2,7.918175E-2,4.8587006E-2,-7.806262E-2,-1.15115754E-1,6.571876E-4,-4.766991E-2,-6.7342065E-2,3.6775786E-2,-6.654247E-2,-1.0969024E-1,-6.4016454E-2,-8.436479E-2,1.4941894E-1,1.859151E-2,5.4892054E-4,-8.584469E-2,-8.4109165E-2,4.2216145E-2,1.4090659E-2,7.348445E-2,4.555775E-2,4.0797116E-3,-1.7631207E-1,-1.6171886E-2,3.0018741E-2,-9.924423E-2,-5.4289866E-2,1.6188063E-3,-8.958031E-3,4.2670324E-2,-1.5726848E-1,-9.3862854E-2,-8.543958E-2,-2.5993187E-2,6.866943E-2,1.6304891E-1,2.2505397E-2,-4.916637E-2,2.2366166E-2,7.830732E-2],"categories":[],"categories_nodes":[],"categories_segments":[],"categories_sizes":[],"default_left":[0,0,0,0,0,0,0,0,0,0,0,0,0,0,0,0,0,0,0,0,0,0,0,0,0,0,0,0,0,0,0,0,0,0,0,0,0,0,0,0,0,0,0,0,0,0,0,0,0,0,0,0,0,0,0,0,0,0,0,0,0,0,0,0,0,0,0,0,0,0,0,0,0,0,0,0,0,0,0,0,0,0,0,0,0,0,0,0,0,0,0],"id":13,"left_children":[1,3,5,7,9,11,13,15,17,19,21,23,25,27,-1,29,31,33,35,37,-1,-1,39,41,43,45,47,49,51,53,55,57,59,-1,61,63,65,67,69,71,73,75,-1,77,79,81,83,85,87,89,-1,-1,-1,-1,-1,-1,-1,-1,-1,-1,-1,-1,-1,-1,-1,-1,-1,-1,-1,-1,-1,-1,-1,-1,-1,-1,-1,-1,-1,-1,-1,-1,-1,-1,-1,-1,-1,-1,-1,-1,-1],"loss_changes":[1.9283115E2,2.5951874E1,6.3695183E1,2.190535E1,3.0062809E1,3.4889374E1,1.7575653E1,2.4410385E1,2.438821E1,6.7035965E1,5.63945E1,4.3001175E1,8.954513E1,2.2093689E1,0E0,1.9404175E1,4.699011E1,6.823475E0,7.2231224E1,6.571836E1,0E0,0E0,2.6675255E1,1.0905572E2,3.276142E1,2.7207054E1,1.07899445E2,3.5939003E1,1.7569618E0,3.3883057E0,5.479435E0,2.912116E1,2.5637321E0,0E0,1.8712234E-1,3.0092834E1,3.161916E1,4.261135E1,1.2329966E1,6.0454845E0,8.948917E1,4.9931046E1,0E0,5.8313683E1,7.4738464E1,5.6376038E0,8.228125E0,1.4672234E1,7.215484E1,2.1340485E1,0E0,0E0,0E0,0E0,0E0,0E0,0E0,0E0,0E0,0E0,0E0,0E0,0E0,0E0,0E0,0E0,0E0,0E0,0E0,0E0,0E0,0E0,0E0,0E0,0E0,0E0,0E0,0E0,0E0,0E0,0E0,0E0,0E0,0E0,0E0,0E0,0E0,0E0,0E0,0E0,0E0],"parents":[2147483647,0,0,1,1,2,2,3,3,4,4,5,5,6,6,7,7,8,8,9,9,10,10,11,11,12,12,13,13,15,15,16,16,17,17,18,18,19,19,22,22,23,23,24,24,25,25,26,26,27,27,28,28,29,29,30,30,31,31,32,32,34,34,35,35,36,36,37,37,38,38,39,39,40,40,41,41,43,43,44,44,45,45,46,46,47,47,48,48,49,49],"right_children":[2,4,6,8,10,12,14,16,18,20,22,24,26,28,-1,30,32,34,36,38,-1,-1,40,42,44,46,48,50,52,54,56,58,60,-1,62,64,66,68,70,72,74,76,-1,78,80,82,84,86,88,90,-1,-1,-1,-1,-1,-1,-1,-1,-1,-1,-1,-1,-1,-1,-1,-1,-1,-1,-1,-1,-1,-1,-1,-1,-1,-1,-1,-1,-1,-1,-1,-1,-1,-1,-1,-1,-1,-1,-1,-1,-1],"split_conditions":[1.8585715E2,1.8357143E2,1.9028572E2,4E0,3.4366155E3,4E0,6.688627E3,1.8242857E2,3.8086216E3,3.480711E3,3.5692861E3,6E0,3.712974E3,6.331203E3,-4.5572918E-2,3E0,3E0,3.18029E3,4.80361E3,3E0,1.4076127E-1,-9.198715E-2,3.63946E3,3E0,3.5E1,1.88E2,3.8251729E3,5.8856353E3,6.467537E3,5.7287993E3,7E0,3.3104885E3,1.2E1,-2.052784E-2,1.2E1,2.1E1,5E0,3.3598162E3,3.8E1,3E0,3.6514397E3,3.6426094E3,1.5151308E-1,3.6670232E3,2E0,6E0,5E0,2.9E1,3.1E1,5.9401865E3,-7.647631E-2,7.918175E-2,4.8587006E-2,-7.806262E-2,-1.15115754E-1,6.571876E-4,-4.766991E-2,-6.7342065E-2,3.6775786E-2,-6.654247E-2,-1.0969024E-1,-6.4016454E-2,-8.436479E-2,1.4941894E-1,1.859151E-2,5.4892054E-4,-8.584469E-2,-8.4109165E-2,4.2216145E-2,1.4090659E-2,7.348445E-2,4.555775E-2,4.0797116E-3,-1.7631207E-1,-1.6171886E-2,3.0018741E-2,-9.924423E-2,-5.4289866E-2,1.6188063E-3,-8.958031E-3,4.2670324E-2,-1.5726848E-1,-9.3862854E-2,-8.543958E-2,-2.5993187E-2,6.866943E-2,1.6304891E-1,2.2505397E-2,-4.916637E-2,2.2366166E-2,7.830732E-2],"split_indices":[8,8,8,1,6,4,6,8,6,5,6,0,6,6,0,1,1,6,6,1,0,0,6,4,0,8,5,5,6,6,0,6,0,0,0,0,1,6,0,1,6,6,0,6,4,0,0,0,0,6,0,0,0,0,0,0,0,0,0,0,0,0,0,0,0,0,0,0,0,0,0,0,0,0,0,0,0,0,0,0,0,0,0,0,0,0,0,0,0,0,0],"split_type":[0,0,0,0,0,0,0,0,0,0,0,0,0,0,0,0,0,0,0,0,0,0,0,0,0,0,0,0,0,0,0,0,0,0,0,0,0,0,0,0,0,0,0,0,0,0,0,0,0,0,0,0,0,0,0,0,0,0,0,0,0,0,0,0,0,0,0,0,0,0,0,0,0,0,0,0,0,0,0,0,0,0,0,0,0,0,0,0,0,0,0],"sum_hessian":[8.75E3,2.625E3,6.125E3,8.75E2,1.75E3,4.025E3,2.1E3,5.25E2,3.5E2,3.15E2,1.435E3,3.22E3,8.05E2,2.065E3,3.5E1,3.15E2,2.1E2,1.05E2,2.45E2,2.8E2,3.5E1,1.05E2,1.33E3,2.8E2,2.94E3,1.75E2,6.3E2,1.96E3,1.05E2,2.1E2,1.05E2,1.4E2,7E1,3.5E1,7E1,7E1,1.75E2,1.4E2,1.4E2,1.4E2,1.19E3,2.1E2,7E1,1.82E3,1.12E3,7E1,1.05E2,7E1,5.6E2,1.925E3,3.5E1,7E1,3.5E1,1.75E2,3.5E1,3.5E1,7E1,3.5E1,1.05E2,3.5E1,3.5E1,3.5E1,3.5E1,3.5E1,3.5E1,1.05E2,7E1,1.05E2,3.5E1,7E1,7E1,7E1,7E1,3.5E1,1.155E3,1.75E2,3.5E1,2.1E2,1.61E3,5.6E2,5.6E2,3.5E1,3.5E1,3.5E1,7E1,3.5E1,3.5E1,2.8E2,2.8E2,1.855E3,7E1],"tree_param":{"num_deleted":"0","num_feature":"9","num_nodes":"91","size_leaf_vector":"1"}},{"base_weights":[-1.6010743E-4,-2.0435874E-1,8.737267E-2,-2.2307472E-1,2.426914E-1,3.6358014E-2,2.5939828E-1,-2.0376302E-1,-8.8659394E-1,7.466464E-2,5.673361E-2,1.5650382E-2,2.3023066E-1,4.5684868E-1,1.2737799E-1,-3.4379098E-1,-1.3507147E-1,-4.2274367E-2,-1.3258167E-1,5.9113503E-3,8.814177E-3,6.988715E-2,-1.6631581E-1,5.2351224E-1,4.571894E-2,2.8425726E-1,6.2781435E-1,2.2589643E-1,-1.6784722E-1,-4.8392254E-1,-1.2496695E-1,1.1136495E-1,-1.9347782E-1,5.3119913E-2,1.5844488E-1,-3.4283504E-1,4.794787E-1,1.6535759E-2,6.112431E-1,-6.974496E-2,1.5428947E-1,1.607483E-2,7.268596E-1,5.026032E-1,1.4659844E-1,4.8538372E-1,9.5308036E-2,-5.1688254E-1,5.276715E-1,-6.0581274E-2,-2.623247E-2,-5.17881E-2,7.3013394E-3,-3.7566014E-3,1.2707604E-1,-8.287516E-2,-1.3839421E-2,-2.8466529E-3,1.8221859E-2,-9.703685E-2,-2.0206634E-2,2.9800111E-2,1.3533835E-1,7.77492E-2,4.3638524E-2,3.1983044E-2,-6.736683E-3,-5.928225E-2,1.7142398E-2,4.1064583E-2,8.769559E-2,9.819835E-2,3.0636117E-2,-3.5960507E-3,7.4446216E-2,-8.484062E-2,1.8307593E-2,-7.9835676E-2,-4.1641127E-2,6.194104E-2,4.21275E-2],"categories":[],"categories_nodes":[],"categories_segments":[],"categories_sizes":[],"default_left":[0,0,0,0,0,0,0,0,0,0,0,0,0,0,0,0,0,0,0,0,0,0,0,0,0,0,0,0,0,0,0,0,0,0,0,0,0,0,0,0,0,0,0,0,0,0,0,0,0,0,0,0,0,0,0,0,0,0,0,0,0,0,0,0,0,0,0,0,0,0,0,0,0,0,0,0,0,0,0,0,0],"id":14,"left_children":[1,3,5,7,9,11,13,15,17,19,-1,21,23,25,27,29,31,-1,-1,-1,-1,33,35,37,39,41,43,45,47,49,51,53,55,57,-1,59,61,-1,63,-1,65,67,69,71,-1,73,75,77,79,-1,-1,-1,-1,-1,-1,-1,-1,-1,-1,-1,-1,-1,-1,-1,-1,-1,-1,-1,-1,-1,-1,-1,-1,-1,-1,-1,-1,-1,-1,-1,-1],"loss_changes":[1.5643387E2,2.2025818E1,5.375128E1,3.2122612E1,5.739834E0,1.89696E1,3.6462334E1,2.3529083E1,1.3904598E1,9.670109E-3,0E0,4.216322E1,2.4652004E1,1.6375076E1,2.4498512E1,2.4654839E1,2.3713165E1,0E0,0E0,0E0,0E0,8.349081E1,1.1199362E2,5.429058E0,2.278043E1,3.3342506E1,2.8753647E1,2.133582E1,5.1495228E1,1.3103294E1,2.4619217E1,5.4611423E1,4.646122E1,3.429966E1,0E0,6.7911804E1,3.3060062E1,0E0,3.759571E0,0E0,9.048074E0,1.674976E1,4.670906E0,2.28415E1,0E0,2.8526333E1,3.5025826E1,3.6550446E0,4.3206787E-1,0E0,0E0,0E0,0E0,0E0,0E0,0E0,0E0,0E0,0E0,0E0,0E0,0E0,0E0,0E0,0E0,0E0,0E0,0E0,0E0,0E0,0E0,0E0,0E0,0E0,0E0,0E0,0E0,0E0,0E0,0E0,0E0],"parents":[2147483647,0,0,1,1,2,2,3,3,4,4,5,5,6,6,7,7,8,8,9,9,11,11,12,12,13,13,14,14,15,15,16,16,21,21,22,22,23,23,24,24,25,25,26,26,27,27,28,28,29,29,30,30,31,31,32,32,33,33,35,35,36,36,38,38,40,40,41,41,42,42,43,43,45,45,46,46,47,47,48,48],"right_children":[2,4,6,8,10,12,14,16,18,20,-1,22,24,26,28,30,32,-1,-1,-1,-1,34,36,38,40,42,44,46,48,50,52,54,56,58,-1,60,62,-1,64,-1,66,68,70,72,-1,74,76,78,80,-1,-1,-1,-1,-1,-1,-1,-1,-1,-1,-1,-1,-1,-1,-1,-1,-1,-1,-1,-1,-1,-1,-1,-1,-1,-1,-1,-1,-1,-1,-1,-1],"split_conditions":[1.8585715E2,6.956586E3,1.9171428E2,6.9444473E3,4E0,6.78423E3,2E0,1.8357143E2,1.5E1,1.5E1,5.673361E-2,6.06756E3,6.8611743E3,2E0,3E1,4E0,3.4366155E3,-4.2274367E-2,-1.3258167E-1,5.9113503E-3,8.814177E-3,5.949049E3,5E0,6.533979E3,6.924418E3,5.2255146E3,4.1E1,5.32857E3,4E0,1.8242857E2,3.8086216E3,3.480711E3,3.5692861E3,3E0,1.5844488E-1,1.8E1,3.6E1,1.6535759E-2,4E0,-6.974496E-2,3E0,1.92E2,4E0,4E0,1.4659844E-1,3.1520227E3,5.262953E3,3.6909255E3,4.1E1,-6.0581274E-2,-2.623247E-2,-5.17881E-2,7.3013394E-3,-3.7566014E-3,1.2707604E-1,-8.287516E-2,-1.3839421E-2,-2.8466529E-3,1.8221859E-2,-9.703685E-2,-2.0206634E-2,2.9800111E-2,1.3533835E-1,7.77492E-2,4.3638524E-2,3.1983044E-2,-6.736683E-3,-5.928225E-2,1.7142398E-2,4.1064583E-2,8.769559E-2,9.819835E-2,3.0636117E-2,-3.5960507E-3,7.4446216E-2,-8.484062E-2,1.8307593E-2,-7.9835676E-2,-4.1641127E-2,6.194104E-2,4.21275E-2],"split_indices":[8,6,8,6,1,6,4,8,0,0,0,6,6,1,0,1,6,0,0,0,0,6,1,5,6,6,0,6,1,8,6,5,6,4,0,0,0,0,1,0,4,8,0,0,0,6,5,6,0,0,0,0,0,0,0,0,0,0,0,0,0,0,0,0,0,0,0,0,0,0,0,0,0,0,0,0,0,0,0,0,0],"split_type":[0,0,0,0,0,0,0,0,0,0,0,0,0,0,0,0,0,0,0,0,0,0,0,0,0,0,0,0,0,0,0,0,0,0,0,0,0,0,0,0,0,0,0,0,0,0,0,0,0,0,0,0,0,0,0,0,0,0,0,0,0,0,0,0,0,0,0,0,0,0,0,0,0,0,0,0,0,0,0,0,0],"sum_hessian":[8.75E3,2.625E3,6.125E3,2.52E3,1.05E2,4.725E3,1.4E3,2.45E3,7E1,7E1,3.5E1,4.27E3,4.55E2,5.6E2,8.4E2,8.05E2,1.645E3,3.5E1,3.5E1,3.5E1,3.5E1,3.29E3,9.8E2,1.75E2,2.8E2,2.8E2,2.8E2,6.3E2,2.1E2,4.9E2,3.15E2,3.15E2,1.33E3,3.255E3,3.5E1,7.7E2,2.1E2,3.5E1,1.4E2,3.5E1,2.45E2,1.75E2,1.05E2,2.45E2,3.5E1,2.1E2,4.2E2,1.4E2,7E1,3.15E2,1.75E2,1.05E2,2.1E2,2.8E2,3.5E1,1.05E2,1.225E3,1.995E3,1.26E3,1.4E2,6.3E2,1.75E2,3.5E1,7E1,7E1,1.4E2,1.05E2,3.5E1,1.4E2,3.5E1,7E1,7E1,1.75E2,7E1,1.4E2,3.5E1,3.85E2,3.5E1,1.05E2,3.5E1,3.5E1],"tree_param":{"num_deleted":"0","num_feature":"9","num_nodes":"81","size_leaf_vector":"1"}},{"base_weights":[-9.222884E-5,-1.8400186E-1,7.874335E-2,-9.1459595E-2,-1.7377979E-1,3.6393397E-2,2.4797535E-1,4.0032026E-1,-1.9818881E-1,1.563969E-1,1.7517399E-2,4.73655E-2,3.17289E-1,-1.3497193E-2,6.660977E-2,-2.1668272E-1,2.1909587E-1,5.7129156E-2,9.874838E-1,-1.2503384E0,5.0045893E-2,1.7857878E-1,-4.0792787E-1,1.1069717E0,2.5024408E-1,-1.9865568E-1,-8.003982E-1,6.740409E-2,5.121798E-2,-6.491873E-2,6.2192523E-1,6.797998E-2,1.2677379E-1,-8.7098405E-2,-1.963778E-1,1.4672894E0,2.5255362E-2,-7.9548135E-2,3.713651E-1,-8.3784005E-3,-7.207405E-2,8.5973635E-2,1.3234578E-1,3.5217732E-1,-1.3690233E-1,-2.1050131E-2,5.5576857E-2,-3.816435E-2,-1.1969196E-1,5.3364965E-3,7.957088E-3,1.6514242E-3,-5.468675E-2,4.0224552E-2,7.245526E-2,1.0885244E-1,1.8052964E-1,-2.2049777E-2,4.597953E-3,-4.262137E-2,6.0636308E-2,4.451502E-2,2.9234955E-2,-5.351888E-2,4.022455E-2,5.8744855E-2,-3.2087203E-2],"categories":[],"categories_nodes":[],"categories_segments":[],"categories_sizes":[],"default_left":[0,0,0,0,0,0,0,0,0,0,0,0,0,0,0,0,0,0,0,0,0,0,0,0,0,0,0,0,0,0,0,0,0,0,0,0,0,0,0,0,0,0,0,0,0,0,0,0,0,0,0,0,0,0,0,0,0,0,0,0,0,0,0,0,0,0,0],"id":15,"left_children":[1,3,5,-1,7,9,11,13,15,17,19,21,23,-1,-1,25,27,29,31,33,35,37,39,41,43,45,47,49,-1,51,53,-1,-1,-1,-1,55,57,59,61,-1,-1,-1,-1,63,65,-1,-1,-1,-1,-1,-1,-1,-1,-1,-1,-1,-1,-1,-1,-1,-1,-1,-1,-1,-1,-1,-1],"loss_changes":[1.2689195E2,1.9452515E1,4.3895817E1,0E0,3.638759E1,1.1098936E1,1.7032509E1,1.5170378E1,1.9232498E1,5.4888664E1,1.747613E2,1.8950855E1,4.7955147E1,0E0,0E0,2.4895447E1,4.6780696E0,4.1123943E1,5.260498E0,2.6978119E1,1.4510239E2,1.2271323E1,7.138748E0,2.6623077E0,3.323667E1,2.0769516E1,1.1332417E1,7.881284E-3,0E0,1.9279072E1,2.0983353E0,0E0,0E0,0E0,0E0,7.124695E0,2.069293E1,2.5463312E1,6.919136E-1,0E0,0E0,0E0,0E0,2.980484E1,2.3642014E1,0E0,0E0,0E0,0E0,0E0,0E0,0E0,0E0,0E0,0E0,0E0,0E0,0E0,0E0,0E0,0E0,0E0,0E0,0E0,0E0,0E0,0E0],"parents":[2147483647,0,0,1,1,2,2,4,4,5,5,6,6,7,7,8,8,9,9,10,10,11,11,12,12,15,15,16,16,17,17,18,18,19,19,20,20,21,21,22,22,23,23,24,24,25,25,26,26,27,27,29,29,30,30,35,35,36,36,37,37,38,38,43,43,44,44],"right_children":[2,4,6,-1,8,10,12,14,16,18,20,22,24,-1,-1,26,28,30,32,34,36,38,40,42,44,46,48,50,-1,52,54,-1,-1,-1,-1,56,58,60,62,-1,-1,-1,-1,64,66,-1,-1,-1,-1,-1,-1,-1,-1,-1,-1,-1,-1,-1,-1,-1,-1,-1,-1,-1,-1,-1,-1],"split_conditions":[1.8585715E2,2.988786E3,1.9185715E2,-9.1459595E-2,3.300693E3,3.5638142E3,3.7180388E3,1.2E1,6.956586E3,1.9028572E2,3.6425093E3,3.6197773E3,4.9617993E3,-1.3497193E-2,6.660977E-2,6.9444473E3,4E0,3.3729373E3,2E0,3.640947E3,3.6429385E3,3.1520227E3,3E0,2E0,5E0,6.924863E3,1.5E1,1.5E1,5.121798E-2,3.2667231E3,6E0,6.797998E-2,1.2677379E-1,-8.7098405E-2,-1.963778E-1,6E0,3.727133E3,4E0,1.3E1,-8.3784005E-3,-7.207405E-2,8.5973635E-2,1.3234578E-1,5.001784E3,5.262953E3,-2.1050131E-2,5.5576857E-2,-3.816435E-2,-1.1969196E-1,5.3364965E-3,7.957088E-3,1.6514242E-3,-5.468675E-2,4.0224552E-2,7.245526E-2,1.0885244E-1,1.8052964E-1,-2.2049777E-2,4.597953E-3,-4.262137E-2,6.0636308E-2,4.451502E-2,2.9234955E-2,-5.351888E-2,4.022455E-2,5.8744855E-2,-3.2087203E-2],"split_indices":[8,6,8,0,6,6,6,0,6,8,6,6,6,0,0,6,1,6,1,6,6,6,1,0,1,6,0,0,0,6,0,0,0,0,0,0,6,4,0,0,0,0,0,6,5,0,0,0,0,0,0,0,0,0,0,0,0,0,0,0,0,0,0,0,0,0,0],"split_type":[0,0,0,0,0,0,0,0,0,0,0,0,0,0,0,0,0,0,0,0,0,0,0,0,0,0,0,0,0,0,0,0,0,0,0,0,0,0,0,0,0,0,0,0,0,0,0,0,0,0,0,0,0,0,0,0,0,0,0,0,0,0,0,0,0,0,0],"sum_hessian":[8.75E3,2.625E3,6.125E3,3.5E1,2.59E3,4.9E3,1.225E3,1.05E2,2.485E3,6.65E2,4.235E3,3.15E2,9.1E2,3.5E1,7E1,2.38E3,1.05E2,5.95E2,7E1,1.05E2,4.13E3,2.45E2,7E1,7E1,8.4E2,2.31E3,7E1,7E1,3.5E1,4.9E2,1.05E2,3.5E1,3.5E1,7E1,3.5E1,7E1,4.06E3,1.05E2,1.4E2,3.5E1,3.5E1,3.5E1,3.5E1,6.65E2,1.75E2,2.275E3,3.5E1,3.5E1,3.5E1,3.5E1,3.5E1,4.2E2,7E1,3.5E1,7E1,3.5E1,3.5E1,3.15E2,3.745E3,7E1,3.5E1,7E1,7E1,3.5E1,6.3E2,3.5E1,1.4E2],"tree_param":{"num_deleted":"0","num_feature":"9","num_nodes":"67","size_leaf_vector":"1"}},{"base_weights":[-3.8386726E-5,-1.656391E-1,7.09488E-2,-4.7764096E-1,-1.4316748E-1,1.4337677E-2,1.79395E-1,-6.6163945E-1,-1.9621164E-1,-4.241196E-2,-2.3292844E-1,5.543447E-2,-1.4991431E-1,5.8095604E-2,2.355273E-1,-8.0804795E-1,-3.5451043E-2,-5.6817796E-2,1.8120501E-2,-1.24263145E-1,5.4768175E-1,4.2243604E-2,-4.203572E-1,3.7999198E-1,2.4405533E-2,-1.1188996E0,-5.6235142E-2,1.7113276E-1,-8.915979E-1,2.948206E-1,-9.236251E-3,-9.028392E-2,-6.908109E-2,-8.2567535E-2,-9.839658E-2,2.6585615E-1,1.3622883E-1,-3.1836744E-2,5.174323E-1,-6.934406E-1,-1.4618479E-1,4.915165E-2,1.3578415E-1,-8.97124E-2,3.5813194E-2,-7.9065375E-2,-1.416065E-1,1.04352094E-1,-5.6778747E-1,1.0513867E-1,1.194787E-1,-6.614935E-2,-1.0969358E-1,6.93898E-1,2.3914663E-1,-9.172928E-2,5.5472266E-2,3.6078993E-2,-1.5384792E-2,5.7968985E-2,1.0298474E-2,1.0833806E-2,-3.457616E-2,-2.5364399E-2,1.2741354E-1,-1.0298818E-1,-1.0154008E-2,4.70548E-2,-2.842919E-2,2.4253802E-2,-8.976581E-2,-3.7632545E-3,1.8802386E-2,4.7254596E-2,-2.6421312E-2,-8.509689E-3,-6.8700075E-2,1.6418744E-2,-7.6055E-2,1.0556815E-1,3.223414E-2,1.2501766E-3,3.409735E-2,1.7156223E-2,-2.8901419E-2],"categories":[],"categories_nodes":[],"categories_segments":[],"categories_sizes":[],"default_left":[0,0,0,0,0,0,0,0,0,0,0,0,0,0,0,0,0,0,0,0,0,0,0,0,0,0,0,0,0,0,0,0,0,0,0,0,0,0,0,0,0,0,0,0,0,0,0,0,0,0,0,0,0,0,0,0,0,0,0,0,0,0,0,0,0,0,0,0,0,0,0,0,0,0,0,0,0,0,0,0,0,0,0,0,0],"id":16,"left_children":[1,3,5,7,9,11,13,15,17,19,21,23,25,27,29,31,-1,-1,-1,33,35,37,39,41,43,45,47,49,51,53,55,-1,-1,-1,57,59,-1,61,63,65,67,69,-1,-1,71,-1,-1,73,75,77,-1,-1,-1,79,81,83,-1,-1,-1,-1,-1,-1,-1,-1,-1,-1,-1,-1,-1,-1,-1,-1,-1,-1,-1,-1,-1,-1,-1,-1,-1,-1,-1,-1,-1],"loss_changes":[1.0288439E2,1.8343002E1,3.7606544E1,8.983906E0,2.2156754E1,2.7184734E1,1.4291641E1,4.479969E0,1.0070382E1,5.5902706E1,6.685916E1,3.242836E1,7.310071E1,7.164812E1,2.0843155E1,1.6533661E-1,0E0,0E0,0E0,1.8352173E1,3.200818E1,1.85328E1,5.7624878E1,9.084014E1,3.0949383E1,5.805954E0,6.052075E1,4.013724E1,2.629078E0,2.5518318E1,1.3123757E1,0E0,0E0,0E0,2.5034227E1,5.3584423E0,0E0,2.0103443E1,4.174996E1,7.676337E1,3.301139E1,3.8851837E1,0E0,0E0,3.2493896E1,0E0,0E0,7.6254486E1,1.006913E1,2.8801985E1,0E0,0E0,0E0,1.8613358E1,2.3443535E1,1.282767E1,0E0,0E0,0E0,0E0,0E0,0E0,0E0,0E0,0E0,0E0,0E0,0E0,0E0,0E0,0E0,0E0,0E0,0E0,0E0,0E0,0E0,0E0,0E0,0E0,0E0,0E0,0E0,0E0,0E0],"parents":[2147483647,0,0,1,1,2,2,3,3,4,4,5,5,6,6,7,7,8,8,9,9,10,10,11,11,12,12,13,13,14,14,15,15,19,19,20,20,21,21,22,22,23,23,24,24,25,25,26,26,27,27,28,28,29,29,30,30,34,34,35,35,37,37,38,38,39,39,40,40,41,41,44,44,47,47,48,48,49,49,53,53,54,54,55,55],"right_children":[2,4,6,8,10,12,14,16,18,20,22,24,26,28,30,32,-1,-1,-1,34,36,38,40,42,44,46,48,50,52,54,56,-1,-1,-1,58,60,-1,62,64,66,68,70,-1,-1,72,-1,-1,74,76,78,-1,-1,-1,80,82,84,-1,-1,-1,-1,-1,-1,-1,-1,-1,-1,-1,-1,-1,-1,-1,-1,-1,-1,-1,-1,-1,-1,-1,-1,-1,-1,-1,-1,-1],"split_conditions":[1.8585715E2,1.8085715E2,1.9028572E2,3.8086216E3,4.826251E3,4E0,3.9340662E3,3E0,3E0,4.501127E3,2E0,6E0,6E0,3.786612E3,5E0,2E0,-3.5451043E-2,-5.6817796E-2,1.8120501E-2,2.988786E3,1.9E1,2.7E1,6.4258555E3,3E0,3.178628E3,5E0,4E1,3.727133E3,8E0,4.2092856E3,5.8856353E3,-9.028392E-2,-6.908109E-2,-8.2567535E-2,3.300693E3,1E1,1.3622883E-1,1.9E1,2E0,4E0,6.461372E3,3.6426094E3,1.3578415E-1,-8.97124E-2,3.6E1,-7.9065375E-2,-1.416065E-1,5.846696E3,3.2344543E3,3.7180388E3,1.194787E-1,-6.614935E-2,-1.0969358E-1,3E0,1.9185715E2,5.262953E3,5.5472266E-2,3.6078993E-2,-1.5384792E-2,5.7968985E-2,1.0298474E-2,1.0833806E-2,-3.457616E-2,-2.5364399E-2,1.2741354E-1,-1.0298818E-1,-1.0154008E-2,4.70548E-2,-2.842919E-2,2.4253802E-2,-8.976581E-2,-3.7632545E-3,1.8802386E-2,4.7254596E-2,-2.6421312E-2,-8.509689E-3,-6.8700075E-2,1.6418744E-2,-7.6055E-2,1.0556815E-1,3.223414E-2,1.2501766E-3,3.409735E-2,1.7156223E-2,-2.8901419E-2],"split_indices":[8,8,8,6,6,4,6,4,1,6,4,0,0,6,1,1,0,0,0,6,0,0,6,4,6,0,0,6,0,6,5,0,0,0,6,0,0,0,1,4,6,6,0,0,0,0,0,5,5,6,0,0,0,1,8,5,0,0,0,0,0,0,0,0,0,0,0,0,0,0,0,0,0,0,0,0,0,0,0,0,0,0,0,0,0],"split_type":[0,0,0,0,0,0,0,0,0,0,0,0,0,0,0,0,0,0,0,0,0,0,0,0,0,0,0,0,0,0,0,0,0,0,0,0,0,0,0,0,0,0,0,0,0,0,0,0,0,0,0,0,0,0,0,0,0,0,0,0,0,0,0,0,0,0,0,0,0,0,0,0,0,0,0,0,0,0,0,0,0,0,0,0,0],"sum_hessian":[8.75E3,2.625E3,6.125E3,1.75E2,2.45E3,4.025E3,2.1E3,1.05E2,7E1,1.155E3,1.295E3,3.22E3,8.05E2,6.65E2,1.435E3,7E1,3.5E1,3.5E1,3.5E1,1.015E3,1.4E2,5.25E2,7.7E2,2.8E2,2.94E3,7E1,7.35E2,5.95E2,7E1,1.155E3,2.8E2,3.5E1,3.5E1,3.5E1,9.8E2,1.05E2,3.5E1,4.55E2,7E1,3.85E2,3.85E2,2.1E2,7E1,3.5E1,2.905E3,3.5E1,3.5E1,5.6E2,1.75E2,5.6E2,3.5E1,3.5E1,3.5E1,1.4E2,1.015E3,2.45E2,3.5E1,1.05E2,8.75E2,3.5E1,7E1,3.15E2,1.4E2,3.5E1,3.5E1,2.45E2,1.4E2,7E1,3.15E2,1.75E2,3.5E1,1.96E3,9.45E2,2.8E2,2.8E2,3.5E1,1.4E2,5.25E2,3.5E1,7E1,7E1,3.15E2,7E2,1.05E2,1.4E2],"tree_param":{"num_deleted":"0","num_feature":"9","num_nodes":"85","size_leaf_vector":"1"}},{"base_weights":[-6.694791E-5,-1.4272885E-1,6.7080766E-2,-2.0420915E-2,-2.2420682E-1,1.5548656E-2,1.6150394E-1,-2.372548E-1,1.2807259E-1,1.6329254E-1,-2.7963725E-1,4.97035E-2,-1.2095799E-1,5.2112114E-2,2.1212612E-1,-5.7433987E-1,1.568693E-1,5.043871E-1,-7.078983E-3,-4.5751813E-1,4.7474125E-1,-6.720083E-1,-2.3786117E-1,3.4224305E-1,2.0337805E-2,-6.588754E-1,3.809305E-2,1.5411998E-1,-8.049132E-1,2.65489E-1,-8.157208E-3,-8.551105E-1,-1.9544367E-1,5.0364363E-1,-1.5428294E-1,2.2753878E-1,9.1060585E-1,-4.902435E-1,1.2562184E-1,-1.5692765E-2,-7.453998E-2,3.685355E-1,5.7426047E-2,-5.7450682E-2,-7.600449E-2,-4.4231348E-2,-3.7844285E-1,4.392624E-2,1.2239698E-1,-8.099021E-2,3.1136177E-2,-7.682271E-3,-8.028117E-1,9.9159455E-1,-9.0683945E-2,9.451868E-2,1.07862584E-1,-5.9718024E-2,-9.902875E-2,6.2548566E-1,2.1526754E-1,-8.260417E-2,5.007903E-2,-6.851682E-2,-1.3317432E-1,-3.7473544E-2,1.6358852E-2,1.1826372E-1,3.2671165E-2,5.2333195E-2,7.435436E-3,6.5422796E-2,1.14168905E-1,-6.1580796E-2,-2.2898464E-2,2.0172847E-3,1.15026E-1,3.066418E-2,4.201921E-2,-1.313462E-2,1.2298419E-1,-6.2438875E-2,-1.3151653E-2,2.1842198E-2,-8.103842E-2,-4.06257E-3,1.692411E-2,-1.0101173E-1,-5.8419883E-2,5.518039E-2,1.403841E-1,-5.6921817E-2,1.495232E-2,3.0483523E-2,-1.1613425E-2,9.5160045E-2,2.905612E-2,1.2763724E-2,4.4402424E-2,1.5456937E-2,-2.60319E-2],"categories":[],"categories_nodes":[],"categories_segments":[],"categories_sizes":[],"default_left":[0,0,0,0,0,0,0,0,0,0,0,0,0,0,0,0,0,0,0,0,0,0,0,0,0,0,0,0,0,0,0,0,0,0,0,0,0,0,0,0,0,0,0,0,0,0,0,0,0,0,0,0,0,0,0,0,0,0,0,0,0,0,0,0,0,0,0,0,0,0,0,0,0,0,0,0,0,0,0,0,0,0,0,0,0,0,0,0,0,0,0,0,0,0,0,0,0,0,0,0,0],"id":17,"left_children":[1,3,5,7,9,11,13,15,17,19,21,23,25,27,29,31,33,35,37,39,41,43,45,47,49,51,53,55,57,59,61,63,65,67,-1,69,71,73,75,-1,-1,77,-1,-1,-1,79,81,83,-1,-1,85,-1,87,89,91,93,-1,-1,-1,95,97,99,-1,-1,-1,-1,-1,-1,-1,-1,-1,-1,-1,-1,-1,-1,-1,-1,-1,-1,-1,-1,-1,-1,-1,-1,-1,-1,-1,-1,-1,-1,-1,-1,-1,-1,-1,-1,-1,-1,-1],"loss_changes":[8.383909E1,2.790852E1,2.8954018E1,3.612482E1,3.615229E1,1.7960772E1,1.1623558E1,6.0671227E1,3.387599E1,4.10142E1,2.395237E1,2.6460758E1,6.598902E1,5.8347984E1,1.6882278E1,2.6003075E1,1.2514295E2,1.958593E1,3.1542702E1,6.0269756E0,1.2786674E0,7.736473E-1,3.6214157E1,7.3858765E1,2.5136852E1,1.468335E1,7.3272194E1,3.2738693E1,2.1427116E0,2.076532E1,1.0688343E1,1.0508537E1,6.8846836E0,2.0757496E1,0E0,4.764044E0,3.4594421E0,3.3363018E0,4.1682957E1,0E0,0E0,9.815407E-2,0E0,0E0,0E0,6.242732E1,4.6741104E1,3.1631523E1,0E0,0E0,2.741978E1,0E0,5.799965E0,1.2097801E1,6.0547413E1,2.4889833E1,0E0,0E0,0E0,1.5124054E1,2.0310085E1,1.0408955E1,0E0,0E0,0E0,0E0,0E0,0E0,0E0,0E0,0E0,0E0,0E0,0E0,0E0,0E0,0E0,0E0,0E0,0E0,0E0,0E0,0E0,0E0,0E0,0E0,0E0,0E0,0E0,0E0,0E0,0E0,0E0,0E0,0E0,0E0,0E0,0E0,0E0,0E0,0E0],"parents":[2147483647,0,0,1,1,2,2,3,3,4,4,5,5,6,6,7,7,8,8,9,9,10,10,11,11,12,12,13,13,14,14,15,15,16,16,17,17,18,18,19,19,20,20,21,21,22,22,23,23,24,24,25,25,26,26,27,27,28,28,29,29,30,30,31,31,32,32,33,33,35,35,36,36,37,37,38,38,41,41,45,45,46,46,47,47,50,50,52,52,53,53,54,54,55,55,59,59,60,60,61,61],"right_children":[2,4,6,8,10,12,14,16,18,20,22,24,26,28,30,32,34,36,38,40,42,44,46,48,50,52,54,56,58,60,62,64,66,68,-1,70,72,74,76,-1,-1,78,-1,-1,-1,80,82,84,-1,-1,86,-1,88,90,92,94,-1,-1,-1,96,98,100,-1,-1,-1,-1,-1,-1,-1,-1,-1,-1,-1,-1,-1,-1,-1,-1,-1,-1,-1,-1,-1,-1,-1,-1,-1,-1,-1,-1,-1,-1,-1,-1,-1,-1,-1,-1,-1,-1,-1],"split_conditions":[1.8614285E2,2E0,1.9028572E2,4.493474E3,3.4366155E3,4E0,3.9340662E3,3.8E1,4.8910347E3,3.18029E3,3.5692861E3,6E0,3.712974E3,3.786612E3,5E0,2E0,3.63946E3,4.9814185E3,5.4259316E3,1.2E1,3E0,3.3527427E3,4.80361E3,3E0,3.178628E3,2.800751E3,3.8251729E3,3.727133E3,8E0,4.2092856E3,5.8856353E3,3.3E1,3.480711E3,1.8528572E2,-1.5428294E-1,1E1,1.9E1,2.1E1,2.7E1,-1.5692765E-2,-7.453998E-2,1.2E1,5.7426047E-2,-5.7450682E-2,-7.600449E-2,4.797674E3,6.4258555E3,3.6426094E3,1.2239698E-1,-8.099021E-2,3.6E1,-7.682271E-3,6E0,2.9E1,1.8685715E2,3.5696416E3,1.07862584E-1,-5.9718024E-2,-9.902875E-2,3E0,1.9471428E2,5.262953E3,5.007903E-2,-6.851682E-2,-1.3317432E-1,-3.7473544E-2,1.6358852E-2,1.1826372E-1,3.2671165E-2,5.2333195E-2,7.435436E-3,6.5422796E-2,1.14168905E-1,-6.1580796E-2,-2.2898464E-2,2.0172847E-3,1.15026E-1,3.066418E-2,4.201921E-2,-1.313462E-2,1.2298419E-1,-6.2438875E-2,-1.3151653E-2,2.1842198E-2,-8.103842E-2,-4.06257E-3,1.692411E-2,-1.0101173E-1,-5.8419883E-2,5.518039E-2,1.403841E-1,-5.6921817E-2,1.495232E-2,3.0483523E-2,-1.1613425E-2,9.5160045E-2,2.905612E-2,1.2763724E-2,4.4402424E-2,1.5456937E-2,-2.60319E-2],"split_indices":[8,4,8,6,6,4,6,0,5,6,6,0,6,6,1,1,6,6,6,0,1,5,6,4,6,6,5,6,0,6,5,0,5,8,0,0,0,0,0,0,0,0,0,0,0,6,6,6,0,0,0,0,0,0,8,6,0,0,0,1,8,5,0,0,0,0,0,0,0,0,0,0,0,0,0,0,0,0,0,0,0,0,0,0,0,0,0,0,0,0,0,0,0,0,0,0,0,0,0,0,0],"split_type":[0,0,0,0,0,0,0,0,0,0,0,0,0,0,0,0,0,0,0,0,0,0,0,0,0,0,0,0,0,0,0,0,0,0,0,0,0,0,0,0,0,0,0,0,0,0,0,0,0,0,0,0,0,0,0,0,0,0,0,0,0,0,0,0,0,0,0,0,0,0,0,0,0,0,0,0,0,0,0,0,0,0,0,0,0,0,0,0,0,0,0,0,0,0,0,0,0,0,0,0,0],"sum_hessian":[8.75E3,2.8E3,5.95E3,1.12E3,1.68E3,3.85E3,2.1E3,4.55E2,6.65E2,2.1E2,1.47E3,3.08E3,7.7E2,6.65E2,1.435E3,2.45E2,2.1E2,1.75E2,4.9E2,7E1,1.4E2,1.4E2,1.33E3,2.8E2,2.8E3,1.75E2,5.95E2,5.95E2,7E1,1.155E3,2.8E2,1.4E2,1.05E2,1.75E2,3.5E1,1.05E2,7E1,1.05E2,3.85E2,3.5E1,3.5E1,7E1,7E1,7E1,7E1,5.6E2,7.7E2,2.1E2,7E1,3.5E1,2.765E3,3.5E1,1.4E2,7E1,5.25E2,5.6E2,3.5E1,3.5E1,3.5E1,1.4E2,1.015E3,2.45E2,3.5E1,1.05E2,3.5E1,7E1,3.5E1,3.5E1,1.4E2,3.5E1,7E1,3.5E1,3.5E1,7E1,3.5E1,3.5E2,3.5E1,3.5E1,3.5E1,5.25E2,3.5E1,3.85E2,3.85E2,1.75E2,3.5E1,1.82E3,9.45E2,7E1,7E1,3.5E1,3.5E1,1.75E2,3.5E2,2.8E2,2.8E2,7E1,7E1,7.35E2,2.8E2,1.05E2,1.4E2],"tree_param":{"num_deleted":"0","num_feature":"9","num_nodes":"101","size_leaf_vector":"1"}},{"base_weights":[-4.270447E-5,-1.2846097E-1,6.0400855E-2,-1.8338518E-2,-2.0182136E-1,1.3988503E-2,1.45443E-1,-6.042143E-2,6.048654E-1,1.4715248E-1,-2.517409E-1,-9.839768E-3,1.9141574E-1,1.5468581E-1,-3.890313E-2,-2.1402623E-1,5.720308E-2,1.6223853E-2,1.03069045E-1,-4.1303715E-1,4.2819017E-1,-6.0575485E-1,-2.1404918E-1,1.1527628E-2,-4.008315E-1,4.6721923E-1,1.7989283E-2,1.3492166E-1,5.1886344E-1,-5.1781225E-1,1.4116523E-1,3.5083807E-1,-6.3050888E-3,-1.4166991E-2,-6.7293115E-2,3.327066E-1,5.1764287E-2,-5.178667E-2,-6.851113E-2,2.3527037E-1,-2.6706344E-1,4.761146E-2,-1.4747854E-1,-1.4150932E-1,-1.3902827E-1,1.5242154E-2,5.442795E-1,-6.688478E-2,1.1842891E-1,1.4985986E-1,-6.680208E-2,6.8491034E-2,4.273627E-2,-7.7103056E-2,-1.760992E-2,4.541356E-2,-1.3928334E-1,5.906232E-2,2.2431549E-2,-4.420158E-2,1.1336238E-2,2.76831E-2,3.793404E-2,5.3906348E-2,-7.183639E-3,-4.9469363E-2,-2.17831E-2,3.0824294E-2,1.6373157E-3,-5.9393734E-2,3.9514876E-3,2.0835392E-2,-4.8445232E-2,6.843478E-2,3.965453E-2,2.5884751E-2,-6.9471574E-3,1.1138931E-2,3.0305488E-2],"categories":[],"categories_nodes":[],"categories_segments":[],"categories_sizes":[],"default_left":[0,0,0,0,0,0,0,0,0,0,0,0,0,0,0,0,0,0,0,0,0,0,0,0,0,0,0,0,0,0,0,0,0,0,0,0,0,0,0,0,0,0,0,0,0,0,0,0,0,0,0,0,0,0,0,0,0,0,0,0,0,0,0,0,0,0,0,0,0,0,0,0,0,0,0,0,0,0,0],"id":18,"left_children":[1,3,5,7,9,11,13,15,17,19,21,23,25,27,-1,29,31,-1,-1,33,35,37,39,41,43,45,47,49,51,53,55,57,59,-1,-1,61,-1,-1,-1,63,65,67,69,-1,71,-1,73,-1,75,77,-1,-1,-1,-1,-1,-1,-1,-1,-1,-1,-1,-1,-1,-1,-1,-1,-1,-1,-1,-1,-1,-1,-1,-1,-1,-1,-1,-1,-1],"loss_changes":[6.793352E1,2.2624523E1,2.3486597E1,2.9436155E1,2.9321106E1,1.628308E1,1.0439205E1,1.9001385E1,1.3214973E1,3.339552E1,1.949849E1,2.8376415E1,2.1802814E1,1.4800365E1,0E0,4.9276505E1,1.111655E1,0E0,0E0,4.9120607E0,1.032093E0,6.286049E-1,3.1767715E1,1.8487677E1,4.653778E1,4.1865196E0,1.946418E1,2.362138E1,1.3177967E0,2.1150108E1,1.01932816E2,3.0833683E0,2.5651041E1,0E0,0E0,7.999039E-2,0E0,0E0,0E0,1.319359E1,1.3239532E1,2.137502E1,4.9780434E1,0E0,1.7020115E1,0E0,2.6463203E0,0E0,6.508625E0,1.1317112E1,0E0,0E0,0E0,0E0,0E0,0E0,0E0,0E0,0E0,0E0,0E0,0E0,0E0,0E0,0E0,0E0,0E0,0E0,0E0,0E0,0E0,0E0,0E0,0E0,0E0,0E0,0E0,0E0,0E0],"parents":[2147483647,0,0,1,1,2,2,3,3,4,4,5,5,6,6,7,7,8,8,9,9,10,10,11,11,12,12,13,13,15,15,16,16,19,19,20,20,21,21,22,22,23,23,24,24,25,25,26,26,27,27,28,28,29,29,30,30,31,31,32,32,35,35,39,39,40,40,41,41,42,42,44,44,46,46,48,48,49,49],"right_children":[2,4,6,8,10,12,14,16,18,20,22,24,26,28,-1,30,32,-1,-1,34,36,38,40,42,44,46,48,50,52,54,56,58,60,-1,-1,62,-1,-1,-1,64,66,68,70,-1,72,-1,74,-1,76,78,-1,-1,-1,-1,-1,-1,-1,-1,-1,-1,-1,-1,-1,-1,-1,-1,-1,-1,-1,-1,-1,-1,-1,-1,-1,-1,-1,-1,-1],"split_conditions":[1.8614285E2,2E0,1.9028572E2,1.8585715E2,3.4366155E3,6.78423E3,6.688627E3,4.493474E3,2E0,3.18029E3,3.5692861E3,6.7035083E3,6.8611743E3,6.331203E3,-3.890313E-2,3.8E1,4.8910347E3,1.6223853E-2,1.03069045E-1,1.2E1,3E0,3.3527427E3,3.775208E3,4E0,2E0,6.533979E3,6.924418E3,5.8856353E3,2E0,2E0,3.63946E3,2E0,5.4259316E3,-1.4166991E-2,-6.7293115E-2,1.2E1,5.1764287E-2,-5.178667E-2,-6.851113E-2,4E0,1.8142857E2,6E0,3.712974E3,-1.4150932E-1,6.8465933E3,1.5242154E-2,4E0,-6.688478E-2,3E0,4E0,-6.680208E-2,6.8491034E-2,4.273627E-2,-7.7103056E-2,-1.760992E-2,4.541356E-2,-1.3928334E-1,5.906232E-2,2.2431549E-2,-4.420158E-2,1.1336238E-2,2.76831E-2,3.793404E-2,5.3906348E-2,-7.183639E-3,-4.9469363E-2,-2.17831E-2,3.0824294E-2,1.6373157E-3,-5.9393734E-2,3.9514876E-3,2.0835392E-2,-4.8445232E-2,6.843478E-2,3.965453E-2,2.5884751E-2,-6.9471574E-3,1.1138931E-2,3.0305488E-2],"split_indices":[8,4,8,8,6,6,6,6,1,6,6,6,6,6,0,0,5,0,0,0,1,5,6,4,1,5,6,5,1,1,6,1,6,0,0,0,0,0,0,4,8,0,6,0,5,0,1,0,4,4,0,0,0,0,0,0,0,0,0,0,0,0,0,0,0,0,0,0,0,0,0,0,0,0,0,0,0,0,0],"split_type":[0,0,0,0,0,0,0,0,0,0,0,0,0,0,0,0,0,0,0,0,0,0,0,0,0,0,0,0,0,0,0,0,0,0,0,0,0,0,0,0,0,0,0,0,0,0,0,0,0,0,0,0,0,0,0,0,0,0,0,0,0,0,0,0,0,0,0,0,0,0,0,0,0,0,0,0,0,0,0],"sum_hessian":[8.75E3,2.8E3,5.95E3,1.12E3,1.68E3,3.85E3,2.1E3,1.05E3,7E1,2.1E2,1.47E3,3.395E3,4.55E2,2.065E3,3.5E1,4.55E2,5.95E2,3.5E1,3.5E1,7E1,1.4E2,1.4E2,1.33E3,3.22E3,1.75E2,1.75E2,2.8E2,1.96E3,1.05E2,2.45E2,2.1E2,1.05E2,4.9E2,3.5E1,3.5E1,7E1,7E1,7E1,7E1,1.4E2,1.19E3,2.625E3,5.95E2,3.5E1,1.4E2,3.5E1,1.4E2,3.5E1,2.45E2,1.925E3,3.5E1,3.5E1,7E1,1.4E2,1.05E2,1.75E2,3.5E1,3.5E1,7E1,1.05E2,3.85E2,3.5E1,3.5E1,7E1,7E1,2.1E2,9.8E2,2.8E2,2.345E3,1.75E2,4.2E2,7E1,7E1,7E1,7E1,1.4E2,1.05E2,1.54E3,3.85E2],"tree_param":{"num_deleted":"0","num_feature":"9","num_nodes":"79","size_leaf_vector":"1"}},{"base_weights":[-6.113498E-5,-1.156618E-1,5.434947E-2,-1.6523747E-2,-1.8170469E-1,1.25598535E-2,1.3092133E-1,-5.451313E-2,5.460589E-1,-6.854917E-2,-3.1517157E-1,-8.911654E-3,1.7243853E-1,3.1701453E-2,1.7684717E-1,-1.9303782E-1,5.1563665E-2,1.464653E-2,9.3048416E-2,-1.1778592E-1,1.1314493E-1,-5.328546E-1,-9.6672036E-2,4.5525372E-2,-1.429697E-1,4.2119774E-1,1.6018402E-2,1.2329786E-1,-7.376389E-1,2.2508727E-1,-2.2236088E-2,-4.6641684E-1,1.2660329E-1,-6.840709E-4,4.379122E-1,-6.07354E-2,-1.4472775E-1,-8.355543E-1,-9.611143E-4,4.5859942E-1,-2.2112647E-1,1.5843596E-2,1.0256369E0,-2.9780778E-1,4.234906E-1,1.3760144E-2,4.9061808E-1,-6.038226E-2,1.0666173E-1,6.9198065E-2,9.6292816E-2,-5.4994952E-2,-9.048383E-2,5.4324263E-1,1.8071227E-1,-8.54807E-2,4.105531E-2,-6.944747E-2,-1.5865667E-2,4.0897965E-2,-1.25742E-1,9.606742E-3,-2.65545E-2,-1.63748E-2,1.0274082E-1,-3.9813712E-2,7.2166347E-4,-6.30477E-2,-1.3321465E-1,-4.8997268E-2,1.4389329E-1,5.5330593E-2,3.5115402E-2,-3.1964216E-2,1.2332406E-2,-1.9826373E-2,7.24766E-3,1.4319567E-1,5.9082724E-2,-8.187321E-2,-1.8093277E-2,2.6613746E-2,1.18100904E-1,6.1687607E-2,3.5745006E-2,9.780689E-4,3.4531526E-2,1.2076328E-2,-6.861491E-2,8.467972E-2,2.3203677E-2,-8.249585E-4,2.6563559E-2,1.2822421E-2,-2.4553204E-2],"categories":[],"categories_nodes":[],"categories_segments":[],"categories_sizes":[],"default_left":[0,0,0,0,0,0,0,0,0,0,0,0,0,0,0,0,0,0,0,0,0,0,0,0,0,0,0,0,0,0,0,0,0,0,0,0,0,0,0,0,0,0,0,0,0,0,0,0,0,0,0,0,0,0,0,0,0,0,0,0,0,0,0,0,0,0,0,0,0,0,0,0,0,0,0,0,0,0,0,0,0,0,0,0,0,0,0,0,0,0,0,0,0,0,0],"id":19,"left_children":[1,3,5,7,9,11,13,15,17,19,21,23,25,27,29,31,33,-1,-1,35,-1,37,39,41,43,45,47,49,51,53,55,57,59,61,63,65,-1,67,69,71,73,75,77,79,81,-1,83,-1,85,87,-1,-1,-1,89,91,93,-1,-1,-1,-1,-1,-1,-1,-1,-1,-1,-1,-1,-1,-1,-1,-1,-1,-1,-1,-1,-1,-1,-1,-1,-1,-1,-1,-1,-1,-1,-1,-1,-1,-1,-1,-1,-1,-1,-1],"loss_changes":[5.504922E1,1.8336163E1,1.904101E1,2.3987967E1,2.5365723E1,1.322139E1,9.568142E0,1.5453615E1,1.0770302E1,5.3958817E1,3.662005E1,2.478957E1,1.7736645E1,4.702318E1,1.3796055E1,3.9905777E1,1.2031058E1,0E0,0E0,6.635511E1,0E0,6.214675E1,2.6776321E1,7.026871E1,8.616925E1,3.3974628E0,1.5852234E1,2.7005966E1,1.7304764E0,1.6222408E1,7.726509E0,1.715585E1,8.297633E1,1.3504622E1,2.535025E1,1.9284592E1,0E0,2.4212692E1,9.998664E1,5.281849E-1,1.0762495E1,2.8460884E1,1.1697662E1,4.6792694E1,2.4836449E1,0E0,2.1502075E0,0E0,5.6843886E0,2.1933605E1,0E0,0E0,0E0,1.3123497E1,